tree
version=v3
num_class=1
num_tree_per_iteration=1
label_index=0
max_feature_idx=22
objective=binary sigmoid:1
feature_names=Redshift NUV u g R I z y J H K ch1 ch2 ch3 ch4 MIPS24 PACS100 PACS160 SPIRE250 SPIRE350 SPIRE500 RadioTotal RadioPeak
feature_infos=[0.0016999999999999999:6.9900000000000002] [1.8898631487210309e-06:482.80246578611047] [2.3970057404549971e-05:489.51435046732513] [1.5198037317531998e-07:854.148681640625] [1.2631546269403771e-05:1725.47998046875] [0.00019123406673310001:1992.46044921875] [3.7567123635818986e-08:7733.6986852221644] [0.0004946634289808:3561.086669921875] [8.7361033365596086e-05:5088.43017578125] [0.0048032743241632004:3155.2730588768609] [0.0021684372331947002:16082.3955078125] [0.018959509208798402:31295.89453125] [0.041375350207090301:41746.55859375] [0.00067148683592670004:66214.8046875] [0.0085968328639864002:84610.6328125] [0.3221819400787353:193784.28125] [374.23516999999998:998210.43999999994] [653.71813999999995:999460.59999999998] [191.3013916015625:721558.5625] [217.95454406738281:390936.71875] [133.82601928710938:181101.48999999999] [31.95050674846577:27465878.985408921] [21.443216002383821:5823605.6553189121]
tree_sizes=4957 5037 5003 5048 5036 5035 5039 5035 5061 5044 5022 5056 5031 5062 5051 5023 5020 5036 5007 5032 5066 5015 5051 5041 5015 5065 5037 5010 5043 5011 5000 5030 5082 4976 5059 5020 5041 5036 4982 5066 5044 5009 5013 5069 5023 5054 5027 5046 5048 5047 5016 5014 5033 5073 4992 5010 5005 5076 5019 5015 5043 5043 5063 5010 4989 5067 5054 5017 5053 5078 5058 5001 4997 4993 5045 5041 4963 5070 4999 5018 5049 5013 4911 5056 4976 5063 4989 5087 4967 5034 4987 5054 5028 5048 4912 5003 5049 5071 5064 5043 4960 4977 5028 5027 5020 5016 5066 5062 4956 4998 5006 4992 4928 4959 4978 4939 4990 5026 5061 4997 5013 5042 4976 5034 5034 4961 4858 5057 4931 4976 4962 4954 4949 5036 4950 5018 4971 5002 5024 4978 4998 5007 4985 4936 5007 5038 4989 4974 4900 4959 4997 5029 4921 5023 4922 4952 5044 4957 4936 4893 4978 4963 4987 4969 4834 4958 4903 4926 4986 5046 4922 4873 4968 4857 5039 4863 4942 4968 4906 4961 4939 4880 4850 4793 4921 4857 4970 4975 5008 5029 5022 4864 4933 4900 4904 5006 4901 4964 4973 4984 4892 4844 4878 4829 4869 4870 4728 4933 4908 4853 4948 4918 4883 4952 4759 4951 4926 4849 4768 4875 4929 4851 4684 4966 4819 4960 4909 4880 4895 4722 4998 4806 4793 4900 4822 4907 4747 4705 4732 4843 4933 4864 4854 4789 4751 4770 4808 4868 4996 4779 4796 4699 4816 4826 4667 4736 4916 4798 4917 4731 5033 4996 4795 4634 4908 5006 4723 4913 4865 4709 4796 4799 4864 4675 4789 4819 4880 4730 4652 4867 4696 4781 4770 4892 4672 4661 4724 4820 4678 4590 4713 4530 4720 4757 4894 4818 4683 4759 4743 4796 4730 4668 4703 4806 4500 4747 4810 4579 4577 4913 4807 4600 4682 4572 4732 4674 4636 4831 4670 4512 4745 4787 4645 4872 4693 4619 4738 4872 4672 4792 4619 4615 4612 4886 4754 4590 4933 4672 4713 4768 4569 4942 4827 4883 4813 4864 4847 4707 4625 4531 4652 4769 4603 4927 4750 4864 4866 4691 4416 4602 4551 4813 4619 4698 4669 4681 4625 4739 4592 4726 4674 4405 4831 4899 4823 4689 4566 4936 4416 4754 4744 4641 4704 4707 4704 4858 4650 4786 4594 4635 4878 4782 4806 4646 4621 4572 4612 4825 4679 4547 4533 4714 4576 4658 4593 4760 4782 4591 4630 4677 4663 4832 4663 4752 4695 4637 4644 4749 4490 4766 4424 4742 4797 4515 4576 4730 4576 4624 4916 4512 4770 4886 4670 4780 4452 4644 4548 4559 4523 4792 4468 4802 4467 4706 4862 4806 4547 4540 4641 4761 4609 4594 4354 4770 4651 4871 4774 4628 4664 4649 4652 4659 4458 4649 4670 4657 4677 4458 4687 4427 4705 4486 4649 4672 4806 4691 4745 4621 4380 4584 4709 4613 4581 4605 4659 4581 4692 4517 4813 4769 4611 4657 4688 4685 4774 4733 4534 4570 4628 4600 4578 4536 4525 4547 4566 4529 4598 4756 4711 4569 4526 4488 4792 4609 4636 4793 4608 4500 4669 4868 4395 4550 4692 4744 4567 4619 4406 4732 4634 4781 4690 4454 4849 4682 4553 4575 4584 4618 4416 4479 4786 4789 4706 4539 4554 4489 4524 4619 4645 4655 4548 4786 4772 4611 4698 4777 4495 4530 4733

Tree=0
num_leaves=46
num_cat=0
split_feature=18 21 21 18 0 18 21 18 14 0 14 21 0 0 21 21 18 14 0 21 10 21 14 20 10 0 14 14 10 0 3 0 14 0 3 1 14 0 0 10 10 8 0 21 18
split_gain=8348.41 3310.54 1924.84 1907.22 1332.72 939.864 781.875 479.389 465.068 2245.78 313.574 260.762 219.753 215.762 179.72 176.987 241.164 144.064 250.829 140.154 122.308 108.179 107.424 106.71 95.1601 92.7508 91.3825 90.2869 88.8264 87.138 82.705 75.1189 71.8835 71.952 67.9574 63.8329 60.6005 247.192 59.9821 54.7955 49.7634 47.5269 47.0512 46.4461 44.3555
threshold=4220.703825256348 900.57589744481777 446.97665382166628 23329.018554687504 3.1914000000000002 8125.3460859375009 313.80494802677288 1623.0279919921879 80.656786520343317 0.78815000000000013 130.89168845571115 224.14991517091929 0.66865000000000008 5.4557000000000011 1200.0522616903745 524.8846832347989 15861.365550994875 50.083671569824226 0.7359500000000001 606.263134587423 478.38242080062633 1918.7857052493976 167.9924011230469 2526.924926757813 151.82916118593769 0.61485000000000012 120.77376556396486 77.284709930419936 45.46344184875489 0.32874155000000005 0.32748265564441681 3.5262000000000007 46.541591644287116 0.53074270000000012 0.75909122824668895 0.30569795799199934 98.734559819524762 0.53074270000000012 4.2188000000000008 208.67258453369141 48.10432434082032 50.647568389934357 0.12145000000000002 3740.0077408704105 12612.414000000002
decision_type=8 2 2 10 2 10 2 10 10 2 10 2 2 2 2 2 10 8 2 2 10 2 8 10 10 2 10 10 8 2 10 2 10 2 8 10 8 2 2 10 8 10 2 2 10
left_child=2 4 7 14 5 6 17 -1 15 20 28 30 43 23 29 24 34 41 39 36 25 22 -14 -6 44 -10 -27 -20 -11 -3 -9 -25 40 -34 -17 -13 -8 -38 -4 -19 -32 -2 -16 -5 -7
right_child=1 3 38 12 13 8 19 11 9 10 -12 35 21 -15 42 16 -18 18 27 -21 -22 -23 -24 31 -26 26 -28 -29 -30 -31 32 -33 33 -35 -36 -37 37 -39 -40 -41 -42 -43 -44 -45 -46
leaf_value=-0.84996884688311081 -1.042259875478694 -0.99489905338539064 -0.78725678962226175 -1.040347309486465 -0.97701711236773503 -1.0522301357738055 -0.97477078675393547 -0.94723954889338702 -1.0564580082325448 -0.89610890754901618 -0.8109400257366588 -0.90186716466695349 -1.0076644378856254 -1.0322962193788519 -0.99089869013423382 -0.91054919603244422 -1.0510732797196787 -1.042819939047813 -0.96855598548115096 -0.89873766526480159 -0.96677647068978811 -0.86924167311052081 -0.87161517520354026 -0.9566982266232068 -0.94611826377466857 -1.0389758664620095 -0.91684185639774807 -0.84994842521907976 -0.99368221521350919 -0.87237945678599982 -1.0352104969089257 -0.8877639295832549 -1.0045771949469591 -0.89208126324951309 -0.99323478094453321 -0.96820980084277597 -1.0040507879896301 -0.83656624388811041 -0.94774948313191576 -0.93647977039757424 -0.95285183000350193 -0.93228609590495992 -0.79616148553103594 -0.9615829038138175 -1.0686632839149919
leaf_weight=279.21431136131287 945.89763531088829 24.253785520792007 704.54289159178734 281.38334909081459 119.69144561886787 1339.0850200951099 498.48430728912354 172.73427736759186 1597.5948804020882 74.536023795604706 172.1427216231823 389.44086506962776 103.71944051980972 75.127579540014267 7.098668932914733 57.972462952136993 380.96189939975739 193.24154317378998 75.521950036287308 175.69205608963966 62.507723659276962 46.930089056491852 21.690377295017242 108.05751597881317 21.493192046880722 53.437202244997025 33.718677431344986 40.422975867986679 74.536023795604706 153.41012305021286 175.1005003452301 282.96083107590675 44.169495582580566 33.324306935071945 114.95899966359138 86.564323931932449 71.972615569829941 58.366833448410034 17.549487084150314 13.802967369556425 27.014378994703293 8.4789656698703748 355.13063189387321 25.831267505884171 2642.8738807737827
leaf_count=1416 4797 123 3573 1427 607 6791 2528 876 8102 378 873 1975 526 381 36 294 1932 980 383 891 317 238 110 548 109 271 171 205 378 778 888 1435 224 169 583 439 365 296 89 70 137 43 1801 131 13403
internal_value=-0.993682 -1.01646 -0.872374 -0.907971 -1.02844 -1.03471 -0.997278 -0.922534 -1.04643 -1.02109 -0.868417 -0.945562 -1.00028 -0.936112 -0.82676 -1.05783 -1.02297 -1.02825 -0.991985 -0.948444 -1.04969 -0.944473 -0.979565 -0.92127 -1.06254 -1.05298 -0.991029 -0.919348 -0.941689 -0.889346 -0.981009 -0.90529 -1.00199 -0.953246 -0.96218 -0.912976 -0.963597 -0.925579 -0.790391 -1.03312 -1.02229 -1.04062 -0.799387 -1.03256 -1.06331
internal_weight=0 10313 1929.65 1019.45 9293.54 8707.7 2081.88 1207.56 6625.82 2068.47 321.215 928.348 479.555 585.837 539.893 4557.35 553.893 1277.37 322.989 804.516 1747.26 172.34 125.41 510.71 4003.45 1684.75 87.1559 115.945 149.072 177.664 452.343 391.018 279.609 77.4938 172.931 476.005 628.824 130.339 722.092 207.045 202.115 954.377 362.229 307.215 3981.96
internal_count=62087 52301 9786 5170 47131 44160 10558 6124 33602 10490 1629 4708 2432 2971 2738 23112 2809 6478 1638 4080 8861 874 636 2590 20303 8544 442 588 756 901 2294 1983 1418 393 877 2414 3189 661 3662 1050 1025 4840 1837 1558 20194
is_linear=0
shrinkage=1


Tree=1
num_leaves=46
num_cat=0
split_feature=18 22 22 0 18 13 0 18 14 22 18 13 2 18 0 22 18 13 2 0 14 0 22 0 8 14 0 14 0 14 14 14 8 8 18 17 18 22 11 2 13 11 14 13 18
split_gain=7035.34 2452.56 1676.52 1206.38 1006.22 1003.23 740.176 733.534 612.858 402.868 401.482 358.658 351.346 209.29 159.976 158.49 227.779 125.874 124.044 117.921 109.058 107.394 106.796 99.5721 91.5609 84.4711 478.279 181.962 105.113 218.118 84.0522 80.7797 77.3344 75.8711 70.2355 68.6415 67.9438 65.6455 54.1464 51.2267 51.1055 50.6371 58.5786 50.0133 47.4646
threshold=4683.7141214843759 892.92535617518195 301.99469330618797 3.0839500000000002 27149.202148437504 114.8808403015137 0.44475000000000003 7651.4025000000011 158.521354675293 329.72564551450586 1788.7478027343752 66.399647498978098 0.37537273764610296 17726.111078125003 5.4557000000000011 475.35103668004916 15016.208007812502 62.299706987131465 0.50442835688591015 0.68212895000000018 30.009504318237308 0.57795000000000007 438.88500972098586 3.4259000000000008 9.1951877854436948 53.363515064248084 1.4744500000000003 73.030503735220023 0.78815000000000013 89.532949994869355 53.363515064248084 509.58090815543807 15.822448522269214 53.979221403297295 7081.0911328125012 33350.975000000006 18280.076398437504 245.61808934538212 8.1364912986755389 1.2372027039527895 52.078757746409572 313.79771423339849 971.37725830078136 264.74087524414068 25624.100218750002
decision_type=8 2 2 2 10 8 2 10 10 2 10 10 10 10 2 2 10 10 10 2 10 2 2 2 10 8 2 10 2 10 8 8 10 10 10 8 10 2 10 10 8 10 10 10 8
left_child=2 3 10 5 -3 7 13 9 36 17 -1 12 24 31 23 25 39 18 30 -6 -11 44 -4 -5 38 33 28 -28 -27 -30 32 -7 -2 -9 -25 -22 37 -8 -12 -17 -14 -15 -43 -33 -10
right_child=1 4 22 14 19 6 8 15 21 20 11 -13 40 41 -16 16 -18 -19 -20 -21 35 -23 -24 34 -26 26 27 -29 29 -31 -32 43 -34 -35 -36 -37 -38 -39 -40 -41 -42 42 -44 -45 -46
leaf_value=0.11625068076874878 -0.026105079731441754 0.15579499098608277 0.12509105474668156 0.019115259878932953 -0.03516820724597472 0.076556061476648327 -0.011366030730826111 -0.066631232270670443 0.097989878116993792 0.10268043275454218 0.083729189906480761 0.13884494876417472 -0.031623394664000687 -0.062414734839823238 -0.034660689588067568 0.066758463892731462 -0.045924345137033543 0.034169180621580232 -0.055034966404960015 0.050768224162577653 0.046404787617195437 0.1699893651235726 0.18368750846318038 0.032429741923303584 0.11301289648595336 -0.066127037163870056 -0.011806541666238537 0.10100966131237071 -0.046702322126830703 0.095148144532016338 0.054341210394467217 -0.055818709375082182 0.060064552772230474 0.037366418961675037 0.095176118004135252 -0.031095775798492754 -0.040938123398545981 0.07184707163304685 0.026025785688935828 -0.01487987622835414 0.027072616795846004 0.040882090224887216 -0.046706699694686903 0.06272514709388681 -0.014142507269300756
leaf_weight=320.16103826463223 551.36020097136497 406.50768519937992 293.35295163094997 179.00446259975433 167.46543306112289 82.146337375044823 70.20382384955883 3406.0592039823532 23.22877012193203 116.94916190207005 89.396324723958969 110.39394401013851 355.8446072936058 314.45805324614048 72.482284620404243 103.78557777404785 444.74185371398926 127.5040942132473 478.29394233226776 94.501359075307846 154.45368573069572 194.1471179574728 637.02095085382462 121.81644597649574 92.742249205708504 1496.8695590049028 122.09284833073616 96.568007871508598 253.63654643297195 44.734936878085136 61.017666637897491 38.406109064817429 37.274066641926765 21.962202027440071 295.57105362415314 55.898041263222694 81.677751287817955 66.240589529275894 299.69154573976994 35.597051858901978 62.761493667960167 44.430961176753044 66.097040444612503 12.585960641503332 22.478869780898094
leaf_count=1534 2835 1917 1406 903 863 420 361 17807 120 577 442 542 1793 1638 374 515 2289 642 2458 467 764 922 2975 604 461 7810 637 472 1322 219 304 198 191 113 1438 277 420 331 1487 181 311 226 340 64 117
internal_value=0 -0.0230613 0.101191 -0.031573 0.0940189 -0.0379817 0.0212125 -0.0459224 0.080636 -0.00717141 0.0546375 0.0342113 0.0201072 -0.027697 0.0502998 -0.0560501 -0.0236128 -0.0236997 -0.0305796 -0.00297276 0.054797 0.149195 0.166594 0.0612186 0.056878 -0.0594621 -0.0483222 0.0390595 -0.0591819 -0.0229906 -0.0118777 0.0396534 -0.0196482 -0.0658323 0.078195 0.0246669 0.00193709 0.0295918 0.0411015 0.0450952 -0.0220947 -0.0495191 -0.00971104 -0.0192499 0.0457554
internal_weight=0 9962.25 2261.37 9293.77 668.474 8624.9 1016.1 7608.8 457.977 1582.75 1330.99 1010.83 900.436 558.124 668.874 6026.05 584.124 1255.45 1127.95 261.967 327.301 239.855 930.374 596.392 481.83 5441.92 2013.9 218.661 1795.24 298.371 649.652 133.138 588.634 3428.02 417.387 210.352 218.122 136.444 389.088 139.383 418.606 424.986 110.528 50.9921 45.7076
internal_count=62087 51136 10951 47889 3247 44570 5157 39413 2271 8048 6570 5036 4494 2886 3319 31365 2985 6430 5788 1330 1618 1159 4381 2945 2390 28380 10460 1109 9351 1541 3330 682 3026 17920 2042 1041 1112 692 1929 696 2104 2204 566 262 237
is_linear=0
shrinkage=0.06369


Tree=2
num_leaves=46
num_cat=0
split_feature=18 21 21 18 13 18 21 15 6 13 15 2 15 21 13 8 14 13 2 8 21 21 12 15 17 17 2 12 13 2 15 17 15 21 15 14 17 18 14 21 17 12 18 21 8
split_gain=6011.46 2505.42 1439.65 1337.94 885.444 594.68 485.559 389.99 317.878 310.33 309.49 290.316 235.175 164.215 159.729 328.648 263.671 159.218 180.479 150.081 139.988 136.358 134.397 129.857 111.944 106.6 101.176 95.0152 90.5904 87.8872 84.3961 82.5515 77.3558 77.1765 93.5207 59.4211 59.3687 56.3082 56.256 54.4101 54.3844 54.3524 47.7622 44.3498 44.0904
threshold=4683.7141214843759 843.32525497898712 307.5640744020497 23329.018554687504 163.45846368956521 9250.7468414306659 307.5640744020497 91.99903229125978 114.2028274536133 62.811676424043078 133.15914154052737 0.087865024805068914 142.14659118652347 3740.0077408704105 82.097137533657147 31.337565590004495 108.86406735089624 74.611533405238347 0.21711670908614786 1.6063996553421023 697.78856686092513 1200.0522616903745 34.621513366699226 337.52294921875006 39833.510000000002 45288.404500000011 0.39526215548159277 261.45109962247085 100.92221832275392 0.37537273764610296 165.60056263671876 153949.80500000002 262.2039607177735 508.79161447320109 219.47947848388677 52.195031220135441 63769.505000000005 18280.076398437504 64.29361724853517 583.91331650476411 7250.1667500000012 34.076999430657459 2997.9383802413945 1546.4419752293172 11.258361660271705
decision_type=8 2 2 10 10 10 2 10 10 10 10 10 10 2 8 8 10 10 10 10 2 2 8 8 8 8 10 10 10 10 10 8 10 2 10 8 8 10 10 2 8 10 10 2 10
left_child=2 4 7 21 5 6 17 22 -6 26 -4 19 24 25 33 16 -16 18 35 30 -12 32 29 -17 -8 43 -9 -10 39 42 -7 -15 -3 -13 37 44 -29 -35 -21 -14 -25 -32 -1 -5 -2
right_child=1 3 10 13 8 11 12 9 27 -11 20 14 28 31 15 23 -18 -19 -20 38 -22 -23 -24 40 -26 -27 -28 36 -30 -31 41 -33 -34 34 -36 -37 -38 -39 -40 -41 -42 -43 -44 -45 -46
leaf_value=0.098679383198734802 -0.02293717220767964 0.11992727003914498 0.16309111567145301 0 0.13141506702701458 -0.021958895889823693 0.080421823314269558 0.014559030889856562 -0.043961205106163609 0.10728761625662099 0.065404739157651923 -0.065614128659476162 -0.018422637701348579 0.14283823943964549 -0.030223617341697696 0.022037306162579724 0.1252990596869448 0.049157976275484835 -0.057076157295707051 -0.046036195632316916 0.14378839283913541 0.15085722187048209 0.13595642297318969 0.0094590979417284327 -0.0090465608867121711 -0.043297482647289345 -0.039201302279953019 0.08584180344677729 0.082652411732556788 0 0.044717289677621362 -0.010759483301724068 0.042234765462484121 0.050735968151731523 -0.050934208408139642 0.048355714749498034 -0.022299901947150744 -0.037114338558969465 0.013215794986644668 0.029278232690238312 -0.061281537380077265 -0.021968770146722116 0.031384298872268318 0.072629257459528557 0.04284293822200657
leaf_weight=142.56546428799629 509.87770266830921 117.89647148549557 783.60610796511173 134.87858504056931 158.0429767370224 214.55264359712601 294.08659410476685 261.29798579216003 76.582782879471779 94.110541135072708 316.89126002788544 3235.0841671824455 438.93650780618191 32.351599290966988 80.894733801484108 87.14101542532444 80.591081768274307 80.828661501407623 865.19911605119705 566.79289001226425 154.85301195085049 396.3425291031599 134.02076579630375 40.605344653129578 64.012042939662933 311.99654434621334 287.97146351635456 53.01093016564846 40.699604064226151 82.410521447658539 217.00490394234657 17.397801160812378 127.05057336390018 63.750272899866104 393.93171417713165 52.6350287348032 23.839849248528481 41.369081750512123 65.0888961404562 114.46388125419617 704.90051810443401 54.666787624359131 86.168218478560448 36.969198748469353 36.108113676309586
leaf_count=670 2640 559 3507 693 738 1086 1462 1265 404 440 1466 17428 2232 155 420 457 374 401 4579 3026 682 1768 637 211 319 1625 1451 261 195 412 1100 88 613 325 2085 260 121 220 328 558 3752 285 421 180 188
internal_value=0 -0.0219109 0.0914362 0.0650251 -0.0337802 -0.0377476 -0.0115931 0.0372248 0.0702787 0.00501027 0.137787 -0.0488584 0.0239554 -0.00926828 -0.0557773 -0.0323274 0.0486233 -0.0336247 -0.0385477 -0.0192663 0.0934204 0.126462 0.0825189 -0.0485341 0.0641225 -0.0213378 -0.0134828 0.00293111 -0.000500605 0.0561915 0.00701113 0.092098 0.0828592 -0.0618946 -0.0368089 -0.0110998 0.0513715 0.0145097 -0.0395845 -0.00798683 -0.0571485 0.030461 0.0759209 0.0177529 -0.0177386
internal_weight=0 9829.58 2343.9 1174.88 8654.7 8343.22 2496.85 1088.54 311.477 643.38 1255.35 5846.37 952.199 533.594 4728.27 994.133 161.486 1544.65 1463.82 1118.11 471.744 641.29 445.165 832.647 358.099 483.844 549.269 153.434 594.1 311.144 486.224 49.7494 244.947 3734.14 499.051 598.621 76.8508 105.119 631.882 553.4 745.506 271.672 228.734 171.848 545.986
internal_count=62087 51136 10951 5681 45455 43931 12834 5296 1524 3156 5655 31097 4766 2741 25272 5214 794 8068 7667 5825 2148 2940 2140 4420 1781 2498 2716 786 2985 1503 2471 243 1172 20058 2630 3088 382 545 3354 2790 3963 1385 1091 873 2828
is_linear=0
shrinkage=0.06369


Tree=3
num_leaves=46
num_cat=0
split_feature=18 21 18 0 21 18 21 14 0 14 15 15 21 18 0 0 15 11 15 11 14 0 15 14 0 19 14 0 0 21 15 14 0 11 9 21 15 6 15 18 15 21 14 1 11
split_gain=5192.19 2336.45 1183.52 1023.07 888.174 770.939 467.68 406.573 1363.55 500.533 303.097 284.997 184.849 206.852 184.633 177.575 176.521 168.922 165.38 145.51 135.529 131.496 127.455 120.017 119.951 119.414 116.421 166.503 108.426 107.593 106.216 105.205 110.558 101.737 82.9733 78.4548 76.9451 69.4054 63.6522 57.2005 55.2727 54.719 54.3468 51.3335 50.114
threshold=3959.7666792968753 843.32525497898712 20875.429687500004 3.0839500000000002 317.60012638843011 7742.4551406250002 309.31394652332534 64.29361724853517 0.78815000000000013 96.373070052126437 89.483440399169936 91.99903229125978 503.56386321579481 15861.365550994875 0.66265000000000007 5.4557000000000011 644.82092285156261 47.804220721132886 139.76556000000002 269.48990068483914 44.890611648559577 0.47514035000000004 157.08276425537113 167.9924011230469 3.4259000000000008 4835.7194290161142 64.29361724853517 0.57240000000000013 0.32874155000000005 1918.7857052493976 99.103504180908217 44.138812313008209 0.74295000000000011 43.500910388821019 3.0639784661588494 157.3925934388287 240.36965942382815 50.08426899081315 75.029693491699234 20875.429687500004 215.39137448486329 591.41499470567021 59.279272079467781 0.24719562062255515 45.672924041748054
decision_type=8 2 10 2 2 10 2 10 2 10 10 10 2 10 2 2 8 8 10 10 10 2 10 8 2 10 8 2 2 2 10 10 2 8 10 2 10 10 10 10 10 2 10 10 8
left_child=4 3 28 5 11 6 16 12 19 17 -5 33 37 36 -4 24 30 -10 34 43 -13 -22 -6 29 40 -26 -20 -28 -3 -16 44 -32 -33 35 -8 -1 -14 38 -7 -21 -12 -24 -34 -9 -2
right_child=1 2 14 10 22 7 18 8 9 -11 15 20 13 -15 23 -17 -18 -19 26 39 21 -23 41 -25 25 -27 27 -29 -30 -31 31 32 42 -35 -36 -37 -38 -39 -40 -41 -42 -43 -44 -45 -46
leaf_value=0.0064440690363286538 -0.014809014802660531 0.033470873840467569 -0.034342677669766751 -0.020755447614310748 0.14698996693322275 -0.033400372558135279 0.091808638182334895 -0.038693508617963696 0.080136425070594305 0.12253231446164513 -0.012295298032282551 -0.011858290728088385 0.067040636634565151 -0.053825354525133075 -0.013659024032294114 -0.031895937467453964 0.05440195458266462 -0.039617131136525388 -0.012500302248408496 0.076218296183809528 -0.012655217343478501 0.093228237116002616 0.062121629616594828 0.12333981352984293 0.027436922322154073 0.12920812797318801 -0.0074890147253057187 0.10717964703726092 0.12854807005028848 0.092432296718127416 -0.061054291255154478 -0.039950698921352092 -0.0006500946338709588 0.1388714533751845 0.01703057437022417 0.081674045616096272 -0.014277920504220731 0.051959961590025305 -0.068701318285525573 -0.013223025714760602 0.064727811319278031 0.12293796533846042 0.093195856249360845 -0.064539745920010397 0.048504847948909614
leaf_weight=83.384027495980263 188.67444813251495 65.404307097196579 337.32151098549366 200.20341809093952 769.41660518944263 266.59457860887051 219.50599418580532 552.52092887461185 58.838265866041183 276.06577929854393 60.003654316067696 317.77814492583275 98.68655700981617 297.2339296489954 144.65491281449795 54.110068902373314 89.397672221064568 159.20082381367683 307.15421648323536 34.751137003302574 68.913680642843246 120.36295346915722 179.27941535413265 45.176017701625824 70.230887085199356 226.93795126676559 97.712501138448715 92.901123106479645 602.20616319775581 43.643277272582054 569.55579067766666 175.25399595499039 45.837089881300926 107.82080025970936 95.654890909790993 218.27654665708542 75.557529434561729 13.322301566600798 3121.7650333195925 78.946429118514061 74.963212445378304 151.31353460252285 39.248563289642334 1145.2053882926702 60.296227186918259
leaf_count=397 997 301 1788 975 3282 1466 1039 3019 302 1243 302 1563 491 1627 734 285 444 851 1523 168 340 558 808 208 343 1066 482 431 2633 197 3040 928 238 483 460 1013 393 69 17369 407 373 643 187 6311 310
internal_value=0 -0.0187154 0.0629157 -0.0302077 0.0930461 -0.0365068 -0.00183443 -0.0475811 -0.0261449 0.0667732 0.0439956 0.045882 -0.0602193 -0.0218418 -0.00426264 0.0708992 -0.0276553 -0.0048965 0.0349789 -0.0517612 0.0131828 0.0548652 0.131588 0.0382082 0.0844903 0.107032 0.0113493 0.0495923 0.119979 0.012803 -0.0349531 -0.0458131 -0.0110339 0.0849609 0.0705972 0.0621109 0.0317697 -0.0654268 -0.0660568 0.0159078 0.0305268 0.0926625 0.0450718 -0.0564434 0.000891826
internal_weight=0 10084.7 1238.41 8846.33 2016.55 8159.88 1981.19 6178.69 2305.53 494.105 686.449 916.536 3873.16 471.478 570.796 486.246 1168.26 218.039 812.929 1811.42 507.055 189.277 1100.01 233.474 432.136 297.169 497.768 190.614 667.61 188.298 1078.87 829.895 260.34 409.481 315.161 301.661 174.244 3401.68 3388.36 113.698 134.967 330.593 85.0857 1697.73 248.971
internal_count=62087 53000 5861 47139 9087 43795 10079 33716 12301 2396 3344 4354 21415 2511 2927 2369 6144 1153 3935 9905 2461 898 4733 1139 2084 1409 2436 913 2934 931 5700 4393 1353 1893 1499 1410 884 18904 18835 575 675 1451 425 9330 1307
is_linear=0
shrinkage=0.06369


Tree=4
num_leaves=46
num_cat=0
split_feature=18 22 22 16 13 11 15 16 13 15 13 22 2 22 11 10 11 15 15 18 17 2 13 22 18 22 2 6 13 17 11 10 11 13 18 2 16 8 13 8 18 15 15 2 22
split_gain=4547.82 1526.12 1249.58 707.623 682.505 534.767 492.03 428.976 402.744 237.61 196.302 174.59 153.857 129.265 125.422 124.453 116.815 127.103 114.6 111.944 111.768 104.486 102.503 84.9445 82.3709 77.4167 74.6004 108.253 78.696 67.9569 67.8274 67.7629 67.4523 80.4435 62.6923 61.6396 60.1047 57.9349 57.8529 50.0287 48.5417 47.9306 42.8332 43.4304 41.6132
threshold=5601.4656467437753 709.12988676160091 306.31312541183144 29455.842500000002 117.23019409179689 17.986012458801273 82.263210296630874 26700.102500000005 64.479660034179702 99.103504180908217 163.45846368956521 1290.1541433059931 0.53326926087989091 282.8969356638774 43.961894550374389 33.002765331917551 134.63670127729713 255.19153594970706 137.57291595947268 18280.076398437504 9196.183750000002 0.3031583726406098 72.062884825598772 2422.2625010048218 13326.242862701418 529.74533633169142 0.47878473997116089 17.449819571811876 75.490718947789915 16699.865500000004 74.999935150146499 3.7477285861968999 121.63415867845289 264.74087524414068 10912.545941406252 0.99800276756286632 47609.710000000006 13.075763018056991 453.93717956542974 2.2385803461074834 2997.9383802413945 286.69863891601568 91.99903229125978 0.050866586434980605 370.90642618883584
decision_type=8 2 2 10 8 10 10 8 10 10 10 2 10 2 8 10 8 8 10 10 8 10 10 2 10 2 10 10 10 10 10 10 8 10 10 8 8 8 8 8 10 8 8 10 2
left_child=2 4 6 11 5 13 14 10 12 15 16 19 37 31 21 34 17 -6 -4 -3 22 40 44 38 -15 -20 27 28 39 -18 -24 42 -9 -34 -7 -17 -35 -8 -5 -22 -1 -33 -2 -44 -11
right_child=1 3 18 23 7 9 8 32 -10 20 -12 -13 -14 24 -16 35 29 -19 25 -21 26 -23 30 -25 -26 -27 -28 -29 -30 -31 -32 41 33 36 -36 -37 -38 -39 -40 -41 -42 -43 43 -45 -46
leaf_value=0.10082016041583559 -0.02514349120692163 0.087692243253955887 0.13611884758650558 -0.049794421904169543 0 -0.001086174265419667 0.0030757718313243879 0.05245283871504948 0.097010767673826451 -0.043357100019312388 0.1082398458323684 0.12857363871204058 -0.035865782646754912 0.060227068776196817 0.12527844050689291 0.084974387154414938 0.040294889131066672 0.10925644822994239 0.057650302511328681 0.012436907281471888 -0.011044804744384113 0.0081442137543976251 0.079160174140974759 0.051497343970269595 -0.00067677947796902641 0.11816053164590415 -0.061687142351769239 0.030876841396804522 0.0044411168898346055 -0.034076378056172391 -0.0093428169057138341 -0.040865236175894624 -0.058147081216932704 0.080930383700669156 -0.050288088454871011 -0.0061785428758508029 -0.025957443873164367 0.053424703422650217 0.025515012873547464 -0.053986939066833599 0.044144622912060075 0.0060279550667009752 0.039721296388598351 -0.0077787029037298767 -0.0010535253178237632
leaf_weight=179.71528559923172 115.76970665156841 204.96022079885006 746.45547471940517 230.94663041830063 69.685672774910927 272.63813942670822 402.41937017440796 25.954410687088966 168.74290850758553 937.40576550364494 185.15633596479893 291.7086626291275 424.39638534188271 193.00202439725399 177.44296060502529 71.188865214586258 71.067167103290558 96.986111834645271 220.82460387051105 142.56498070061207 135.22629745304585 128.81727151572704 39.931349024176598 43.306992024183273 153.33856396377087 205.38228420913219 2546.4455413967371 68.491988480091095 106.76469022035599 125.03135995566845 118.93644568324089 339.7311964482069 254.72176429629326 26.229267582297325 171.12662415206432 41.768685668706894 47.195975616574287 116.41022923588753 41.776498556137085 1399.9678833186626 143.18955047428608 108.24101614952087 168.82855206727982 127.12583380937576 114.24515195190907
leaf_count=790 596 890 3097 1210 357 1399 1970 120 755 5255 842 1229 2183 943 777 362 362 444 985 712 717 623 192 205 807 859 14370 378 538 677 640 1857 1396 126 953 214 248 556 217 7849 686 582 832 687 600
internal_value=0 -0.0222537 0.0690831 0.0535376 -0.0312203 -0.037743 0.0344632 0.0207529 0.00866062 -0.0454845 0.0558608 0.0917727 -0.00764201 0.000832264 0.0791335 -0.0054225 0.0269454 0.0649411 0.119772 0.0582491 -0.0495197 0.0588086 -0.0317472 -0.0236362 0.0333759 0.0888077 -0.0544665 -0.0433863 -0.0467177 -0.00579105 0.0145893 -0.01227 -0.0331446 -0.0414816 -0.0209749 0.0516816 0.0143134 0.015319 -0.0372716 -0.0503882 0.077841 -0.0292604 0.00602073 0.019096 -0.0389609
internal_weight=0 9087.47 2913.8 955.264 8132.2 7230.17 1741.13 902.028 1111.97 6024.14 547.927 639.234 943.226 1206.04 629.165 556.722 362.77 166.672 1172.66 347.525 5467.42 451.722 1210.52 316.03 346.341 426.207 4256.9 1710.45 1641.96 196.099 158.868 859.696 354.101 328.147 443.765 112.958 73.4252 518.83 272.723 1535.19 322.905 447.972 411.724 295.954 1051.65
internal_count=62087 48806 13281 4463 44343 39771 8340 4572 5464 33467 2682 2831 4709 6304 2876 2928 1840 801 4941 1602 30539 2099 6687 1632 1750 1844 23852 9482 9104 1039 832 4554 1890 1770 2352 576 374 2526 1427 8566 1476 2439 2115 1519 5855
is_linear=0
shrinkage=0.06369


Tree=5
num_leaves=46
num_cat=0
split_feature=21 17 13 2 17 0 6 0 21 2 12 21 17 17 0 0 17 17 13 2 21 21 8 0 13 13 0 12 13 0 12 2 6 17 3 13 21 13 21 12 2 17 10 21 21
split_gain=3024.58 1101.89 812.703 954.227 469.693 432.539 384.736 411.305 405.052 278.263 217.022 213.099 193.494 171.228 160.065 152.838 150.758 120.887 118.719 113.168 109.854 109.621 98.8654 93.1091 80.6512 78.1776 71.0289 69.1858 66.1354 62.9307 62.4674 60.582 289.285 60.3415 59.9845 57.7221 56.2701 52.6458 49.0914 46.5977 46.3931 42.8444 42.5034 40.3688 39.6186
threshold=843.32525497898712 42738.186500000003 117.23019409179689 0.4159422140441365 29720.702000000001 1.4284500000000002 14.337702274322512 3.3412500000000005 443.00086797073544 2.5263333578731708 9.8988399655084454 1918.7857052493976 18613.070000000003 16244.249500000002 5.4557000000000011 0.65614035000000015 7250.1667500000012 11129.462000000001 125.17667388916017 0.36872361163767492 3740.0077408704105 361.46092720364419 12.210607353973957 0.18226490000000004 117.23019409179689 24.342202186584476 0.32874155000000005 313.75506591796881 75.490718947789915 0.77305000000000013 28.094937500356426 0.97912263870239269 29.519962310791026 34083.332000000009 0.69371035695076 75.490718947789915 307.5640744020497 55.870662689208991 209.26932785781813 22.246617877052476 1.2138278484344485 153949.80500000002 265.22502136230474 207.65967441542057 284.7435810368695
decision_type=2 10 8 10 8 2 10 2 2 10 10 2 10 8 2 2 8 10 10 8 2 2 10 2 10 10 2 10 10 2 10 10 10 10 10 10 2 10 2 10 10 10 10 2 2
left_child=2 11 3 6 18 16 7 8 10 36 38 13 25 -2 -9 27 21 22 43 33 29 28 44 -20 -17 -10 -15 -6 -5 -3 -14 32 -18 -8 -24 -19 37 -7 -1 -38 -23 -22 -33 -4 -12
right_child=1 20 4 5 15 9 19 14 12 -11 17 -13 30 26 -16 24 31 35 23 -21 41 40 34 -25 -26 -27 -28 -29 -30 -31 -32 42 -34 -35 -36 -37 39 -39 -40 -41 -42 -43 -44 -45 -46
leaf_value=0.0012163227903922485 0.107849775401603 -0.040618044799765947 -0.0018366366510435823 -0.046055306746931007 -0.046912613885383279 -0.040359849201367058 0.12241491067486922 0.060103572219552606 0.08493152483065107 0.10500468386202182 -0.027079861313877122 0.13577278079971591 0.031075574391440333 -0.022511136833662192 -0.035779835649464659 -0.014876244442093447 -0.050856205295647411 -0.039489123501443721 0 0.0046403157154375494 0.10593232193061725 0.049336820860270934 0.057604557050307044 0.10891051602583129 0.087582863232553029 0.031339572656162475 0.056244571583595367 0.03943774006161236 0.02887815611205374 0.018610821535173475 -0.029762921382625693 -0.062817223739927514 0.076585104801981399 0.0076129662995464359 -0.02261135542415358 0.0250061813943801 0.052217761986116877 0.033580016727543342 0.061840163517219861 -0.0048462875688572021 -0.010479314134788451 -0.0014672244653144036 0.0004810327712078298 0.053432522519350524 -0.00033359103018821678
leaf_weight=100.02467031776905 428.2546318769455 275.88268329203129 66.043916687369347 400.30849732458591 266.92305120825768 261.54920248687267 138.90396988391876 488.14826880395412 185.26414011418819 89.979610309004784 668.45533449947834 571.73581597208977 88.881326869130135 47.563075661659241 74.704730674624443 44.350643277168274 890.41157983243465 1640.8584476411343 33.98748043179512 65.36127607524395 31.593485623598099 93.824310809373856 117.13771530985832 328.74113509058952 70.519934058189392 334.96931655704975 281.97490760684013 35.387062147259712 45.908187344670296 88.258974254131317 217.68806234002113 2070.9175730794668 70.65920926630497 26.121803015470505 45.618146166205406 50.025035098195076 67.005181342363358 37.07899908721447 128.4215686917305 237.31487815082073 96.958316668868065 19.217805311083794 38.48243610560894 181.88774034380913 355.81153762340546
leaf_count=511 1819 1502 326 2222 1484 1462 663 2251 856 432 3591 2329 438 236 389 227 5042 9138 173 330 136 456 596 1472 304 1655 1274 171 232 417 1174 11875 364 139 248 244 330 182 629 1235 503 95 212 872 1851
internal_value=0 0.077243 -0.0133588 -0.0194244 0.0400785 -0.0407397 0.000420111 -0.00371773 -0.0110637 0.00518314 -0.0216353 0.105393 0.0282842 0.0810938 0.0467671 -0.0115974 -0.0493604 -0.0264298 0.0753495 0.0793248 -0.012839 -0.0204074 -0.0105543 0.0987652 0.0482484 0.0517221 0.0441232 -0.0355226 -0.0376116 -0.025724 -0.0112576 -0.0552452 -0.0407683 0.106382 0.0341377 -0.0373758 -0.0106018 -0.0300082 0.0369268 0.00818377 0.0188872 0.0677221 -0.0615862 0.0384545 -0.0180237
internal_weight=0 1744.48 10154.6 9126.79 1027.84 4400.4 4726.4 4496.01 3933.16 692.928 3106.35 1329.53 826.803 757.793 562.853 417.181 3707.47 2877.91 610.66 230.387 414.953 636.999 1187.02 362.729 114.871 520.233 329.538 302.31 446.217 364.142 306.569 3070.47 961.071 165.026 162.756 1690.88 602.948 298.628 228.446 304.32 190.783 50.8113 2109.4 247.932 1024.27
internal_count=62087 7808 54279 49250 5029 24547 24703 23571 20931 3641 16808 5658 4123 3329 2640 2186 20906 15668 2843 1132 2150 3413 6286 1645 531 2511 1510 1655 2454 1919 1612 17493 5406 802 844 9382 3209 1644 1140 1565 959 231 12087 1198 5442
is_linear=0
shrinkage=0.06369


Tree=6
num_leaves=46
num_cat=0
split_feature=15 22 0 19 13 0 22 17 19 0 14 17 22 19 14 0 0 2 8 14 22 14 22 14 19 12 19 13 15 5 0 12 22 2 14 8 19 15 8 5 17 15 22 8 12
split_gain=2776.35 1125.99 1054.84 921.372 887.062 705.496 558.662 434.187 344.122 243.355 354.066 230.237 220.815 190.465 172.92 700.713 163 147.252 125.997 157.943 125.583 123.696 121.769 103.557 85.1385 82.985 79.4171 76.8858 75.8108 75.5015 73.2816 73.0829 72.8857 70.8444 70.7734 70.5441 69.5212 66.0948 65.6998 64.4837 54.9969 60.9489 53.597 53.4978 47.5151
threshold=104.0849075317383 930.26649609519166 3.0839500000000002 3808.504440820313 114.8808403015137 0.65614035000000015 438.88500972098586 49956.134500000007 3808.504440820313 0.76545000000000007 68.086231231689467 26581.558500000003 196.11356402336986 8984.5455507812512 55.134441375732429 1.4527500000000002 5.4557000000000011 0.94306662678718578 19.116014869652648 91.720058441162124 324.48267173059986 138.69362343056858 475.35103668004916 73.030503735220023 4886.1872050781258 48.291524887084968 11516.834735870363 177.94493298476576 259.94298000000009 14.899949550628664 3.2604500000000005 354.92148294258374 198.42264809703926 0.3031583726406098 330.93392309737106 43.735269201055424 1931.6121182617187 266.35628918457036 53.979221403297295 5.5502116680145273 39833.510000000002 6.0266442298889169 1644.4256625037019 4.4202642440795907 80.394624444353681
decision_type=10 2 2 8 10 2 2 10 10 2 10 8 2 10 10 2 2 8 8 10 2 10 2 10 10 10 10 10 10 8 2 10 2 10 10 8 8 10 10 10 8 10 2 8 10
left_child=3 2 4 12 8 11 13 42 9 17 20 27 33 32 22 18 24 29 19 -16 36 -7 38 25 -4 -17 -24 34 -20 -2 -26 -13 -5 43 -6 -35 -11 -22 -10 -15 41 -34 -3 -1 -25
right_child=1 7 16 6 5 21 -8 -9 14 10 -12 31 -14 39 15 23 -18 -19 28 -21 37 -23 26 44 30 -27 -28 -29 -30 -31 -32 -33 40 35 -36 -37 -38 -39 -40 -41 -42 -43 -44 -45 -46
leaf_value=0.038947354992328459 -0.014581565058252617 0.068040329471732275 0.029566635471543597 -0.0028222529573004229 0.042341579835279516 -0.00076615395638683485 0.089214826449506207 -0.016948822572094985 -0.05859422084500919 0.021104503339174768 0.10671578146010427 -0.045232399668827208 0.11469805064923928 -0.043526847118266598 -0.029973146395223617 0.06663124908204722 -0.033240844173168103 -0.053206006374551792 -0.0047013440060355094 0.097166529323412798 0.064420511363450908 0.12097347856554345 0.03063469772966922 0.10663329315465002 0.022095255478929762 -0.03724564798612353 -0.040042345290485795 0.094618351701128936 -0.057074990138731567 0.067117364066716825 0.10583512728878912 0.027644878750461781 0.098018393006389787 -0.011286999602107729 -0.048352845733085049 0.089131672784204641 -0.030329823565268955 -0.008413183940996178 0.035958643134588436 0.051824627064238168 -0.017009599477137462 0.030106618316210389 0.1201356893711658 0.10701470039346193 0.0030301118549856364
leaf_weight=122.13539719581604 163.42281873524189 223.47463089227676 145.08665132522583 330.96459881961346 103.41476954519749 35.349348515272141 367.5819843262434 186.67225234210491 3008.5084318816662 124.1617598682642 122.65864329040051 388.61972567439079 870.37601721286774 361.78435516357422 147.69742852449417 50.699403762817383 57.836643248796463 623.38487039506435 132.16163523495197 45.24095207452774 123.91351175308228 270.07947763800621 102.44601975381374 143.00819489359856 61.713648319244385 57.701700121164322 144.41187624633312 71.107076302170753 1274.4179967194796 54.260439649224281 277.09214612841606 56.581823170185089 70.841020703315735 104.71673260629177 42.172541290521622 29.523997932672501 511.39850944280624 73.328753501176834 23.02766577899456 23.100702211260796 55.986548736691475 256.48738053441048 234.77148047089577 106.87391339242458 24.719119533896446
leaf_count=569 883 948 675 1713 502 172 1575 975 17756 615 542 2194 3626 1968 837 269 308 3501 755 219 549 1113 485 651 308 315 776 318 7541 271 1238 290 329 521 228 129 2755 348 124 120 274 1259 951 477 115
internal_value=0 -0.0168475 -0.0230626 0.0565985 -0.0289753 0.0278964 0.0221367 0.063717 -0.0369368 -0.0127322 0.00910742 -0.00903841 0.097038 -0.000619768 -0.0453091 -0.0294832 0.0622303 -0.037593 -0.0457349 0.0016491 -0.0059351 0.106686 -0.0542204 0.0627282 0.0743301 0.0111252 -0.0100163 0.0434846 -0.0523255 0.00667535 0.0919112 -0.0352826 0.0186458 0.0527382 0.0138502 0.013339 -0.0198872 0.0372463 -0.0577298 -0.036455 0.037292 0.0472588 0.0966664 0.0739181 0.0931349
internal_weight=0 9104.54 8459.62 2700.37 7917.89 967.325 1466.75 644.918 6950.57 1796.53 955.461 661.896 1233.63 1099.16 5154.04 1875.65 541.729 841.068 1599.52 192.938 832.803 305.429 3278.39 276.128 483.892 108.401 246.858 216.694 1406.58 217.683 338.806 445.202 714.28 363.25 145.587 134.241 635.56 197.242 3031.54 384.885 383.315 327.328 458.246 229.009 167.727
internal_count=62087 49527 46653 12560 44124 4817 7238 2874 39307 9464 4809 3532 5322 5663 29843 10702 2529 4655 9352 1056 4267 1285 19141 1350 2221 584 1261 1048 8296 1154 1546 2484 3575 1696 730 650 3370 897 17880 2088 1862 1588 1899 1046 766
is_linear=0
shrinkage=0.06369


Tree=7
num_leaves=46
num_cat=0
split_feature=15 21 21 13 19 11 15 11 13 21 15 19 13 11 19 21 21 19 15 8 11 6 15 21 13 19 15 21 10 11 13 15 11 19 10 8 21 19 10 19 6 19 12 19 12
split_gain=2436.22 1132.66 970.234 753.067 586.081 470.111 321.624 312.335 311.888 187.131 276.114 184.01 156.954 306.146 143.906 143.764 138.67 134.457 112.54 109.471 94.521 91.2789 88.1795 85.4438 82.6618 81.6794 76.7873 69.1351 68.4872 66.3474 158.821 88.7142 67.8747 64.9946 64.4387 64.3503 63.6361 54.4753 53.7095 52.1728 48.8909 46.7926 44.9067 44.9056 44.7793
threshold=104.0849075317383 974.09187747245892 462.99689383495212 114.8808403015137 4407.5351191406253 16.680333137512211 418.77624511718756 134.63670127729713 223.90930886452227 443.00086797073544 264.10946500000006 8551.8078758850115 76.268783033232481 74.999935150146499 12644.942417968752 2677.414821116166 181.89541982789456 8984.5455507812512 418.77624511718756 296.15573178932397 46.539896011352546 72.927661895751967 354.86641092285163 553.73969062848323 66.987408755805532 1605.7338867187502 304.71228000000002 708.85784719524668 137.7151794433594 35.158166885375984 49.453818732934685 198.83217620849612 93.734680175781264 40711.90441894532 68.48270416259767 0.76567241549491893 209.26932785781813 8479.6738632812521 134.77898862039731 28636.158279418949 10.44504369479745 1652.3923500000003 492.76059273253492 2197.6194472656257 9.8988399655084454
decision_type=10 2 2 8 8 8 10 8 10 2 10 8 10 10 8 2 2 10 10 10 10 10 10 2 10 8 10 2 10 8 10 10 10 8 8 10 2 8 8 10 10 10 10 10 10
left_child=2 3 4 5 16 23 39 26 18 12 11 -11 25 -14 -4 21 41 36 38 -10 24 -8 -15 35 -12 -7 -5 -16 -28 30 -27 32 -31 -17 -24 -2 -6 -37 -9 -3 -19 -1 -23 -18 -38
right_child=1 6 14 7 17 9 15 8 19 10 20 -13 13 22 27 33 43 40 -20 -21 -22 42 34 -25 -26 29 28 -29 -30 31 -32 -33 -34 -35 -36 37 44 -39 -40 -41 -42 -43 -44 -45 -46
leaf_value=0.061684931692766259 0.025709758179648982 0.10610463534045433 0.11406079313195566 0.0094186447543604876 -0.02120995116881625 -0.0037058991508333327 0.027870009424864516 -0.031002450216530641 0.10608614269031542 0.070281912675543387 -0.016065833199564495 -0.016869518815215544 0.080542832473977477 0.012468458960573631 0.0085067114973678935 0.1025974219911211 0.1001040836975953 -0.050179753893140652 -0.03948694114030616 0.0019220956039235611 -0.044783860920428187 -0.042155343110289518 0.031064510895280124 0.05876048728768949 0.076845653796031532 -0.043110793815717828 0.10202255508579708 0.079697322587694117 -0.014575722968307102 -0.035899007255877108 0.040452224204078464 -0.060764402908393259 0.050602984136534003 0 -0.059596602183302538 0.010459544304072482 0.068202655224934933 -0.031002063062079355 0.061031930118930884 0.001226912074763536 0.045270332673907239 0.00038073657269839127 0.040520300195899403 0.057231267741346556 0.01029876674288269
leaf_weight=67.312429994344711 308.06622925400734 317.39722244441509 799.26467518508434 60.547415554523468 203.19047209620476 172.70033244788647 243.4485197365284 29.143695876002312 119.67829455435276 199.07716619968414 239.83298076689243 177.82073979079723 108.95376443862915 110.91410405933857 95.015281155705452 95.679488196969032 267.74187161028385 321.85997945070267 386.62513326108456 65.579159170389175 785.3998921662569 165.72936643660069 27.993243157863617 123.80534490942955 38.127577766776085 1125.4118373245001 244.12294563651085 156.49689787626266 17.566986471414566 449.19878830015659 92.27407118678093 2266.1612980216742 31.663612931966782 35.900291919708252 307.54403148591518 236.42246307432652 64.180172026157379 256.47015269100666 73.320345267653465 24.080009266734123 15.50976240634918 171.38925205171108 23.010555818676949 277.38104555010796 278.88648520410061
leaf_count=298 1519 1307 3276 298 1069 902 1121 155 522 943 1281 962 499 603 460 402 1128 1801 2162 324 4534 910 143 569 172 6564 1029 657 93 2649 485 13894 171 178 1875 1227 301 1446 353 115 79 833 120 1265 1393
internal_value=0 -0.01603 0.0527239 -0.023646 0.0222001 -0.030975 0.0511705 0.0279281 0.00278922 -0.0373581 -0.0169585 0.0292264 -0.0435445 -0.0111713 0.100478 0.020711 0.0620465 -0.0131945 -0.0236834 0.0716584 -0.0335786 0.00213033 -0.0349286 0.0111373 -0.000972085 -0.0478206 0.0787097 0.0545208 0.0933795 -0.049689 -0.0364232 -0.055388 -0.0291384 0.0769794 -0.0510084 0.00306956 0.00611921 -0.0109296 0.0329987 0.0993807 -0.0443762 0.0197622 -0.0300085 0.0797156 0.0228937
internal_weight=0 8959.67 2718.23 8054.42 1667.45 7057.84 905.245 996.584 674.347 6133.07 1440.26 376.898 4692.82 555.405 1050.78 563.768 783.825 883.627 489.089 185.257 1063.36 432.188 446.451 924.764 277.961 4137.41 322.237 251.512 261.69 3964.71 1217.69 2747.02 480.862 131.58 335.537 800.959 546.257 492.893 102.464 341.477 337.37 238.702 188.74 545.123 343.067
internal_count=62087 49527 12560 45374 8167 40438 4153 4936 3516 35677 7892 1905 27785 3120 4393 2731 3524 4643 2670 846 5987 2151 2621 4761 1453 24665 1420 1117 1122 23763 7049 16714 2820 580 2018 4192 2763 2673 508 1422 1880 1131 1030 2393 1694
is_linear=0
shrinkage=0.06369


Tree=8
num_leaves=46
num_cat=0
split_feature=15 22 22 13 16 16 12 8 17 14 2 15 8 13 2 14 6 6 14 8 16 14 15 13 4 22 14 12 22 6 22 16 2 12 14 8 22 6 16 2 8 9 13 8 15
split_gain=2147.12 874.865 703.929 620.814 508.599 382.5 369.919 305.28 244.053 212.951 176.069 173.603 171.03 155.361 119.776 289.319 133.684 121.614 115.724 104.507 98.8133 95.4932 85.184 78.449 77.9606 80.4146 65.6095 85.803 63.551 58.1261 56.2723 55.4501 52.6995 52.5736 49.6262 49.0066 46.6889 43.1091 39.5223 39.3308 36.8886 34.2104 33.5106 175.686 70.6846
threshold=108.37586593627931 930.26649609519166 334.60314107710673 114.8808403015137 26700.102500000005 39614.608000000007 19.699025182252083 9.6835090569914559 9413.6140000000014 55.769632339477546 0.84520630290370857 11.704290866851808 27.852594375610355 163.45846368956521 0.61193856596946727 77.284709930419936 18.128387451171886 9.090024375844111 34.727926111667337 59.142590520423262 1.0000000180025095e-35 330.93392309737106 227.64241027832034 330.87851938974569 0.15048415213823316 276.09643489688676 138.69362343056858 130.76104736328128 589.97221004244568 48.787969589233406 216.66305975195471 59812.157500000008 0.036338909263457154 12.412338733673097 77.284709930419936 13.717730045318605 1843.8302215163192 20.456458913654274 21607.987000000005 1.0191494035405102 2.1061496264911743 7.6236323398431702 76.268783033232481 29.823844909667976 304.71228000000002
decision_type=10 2 2 8 8 10 10 10 10 10 10 10 10 10 10 10 10 8 10 10 10 10 10 10 10 2 10 10 2 8 2 10 10 10 10 8 2 10 10 8 8 8 10 8 10
left_child=2 3 7 6 13 36 18 11 9 22 -9 -1 34 21 15 16 32 -17 24 -12 -4 26 30 29 -2 -26 -5 -28 -22 -6 -8 -25 -10 -13 -11 -32 38 -36 -3 -14 -24 -27 -16 -44 -45
right_child=1 5 20 4 23 -7 8 10 14 12 19 33 39 -15 42 17 -18 -19 -20 -21 28 -23 40 31 25 41 27 -29 -30 -31 35 -33 -34 -35 37 -37 -38 -39 -40 -41 -42 -43 43 44 -46
leaf_value=0.046745810525271415 0.030769240461061449 0.073168027888705536 0.017872935395596042 0.011853387877846377 0.0030878694961233352 -0.026620004043867791 -0.027769183229900931 0.09693387336218004 -0.018836202714703085 0.018502230534649555 -0.027538271882460337 0.016355300456070698 0.028634144511736834 0.093321688372371134 -0.056805684542670869 0.070632059169491349 0.054964583070154872 -0.013493744358627364 0.071421489994545853 0.083447646497736339 0.070596756490837756 -0.041879585860429204 0.004434443521319875 0.07594145081625793 -0.029268046564234842 -0.013801252670538661 0.097358317271089234 0.0044720508095544738 0.10848073247679524 -0.056535405720606294 -0.0065698934616116181 -0.026343497008138178 -0.047644456375970534 -0.015946922819823888 0.090577298461167313 0.05292041033007705 0.10815895081395463 0.0046236358083830359 0.0067532697625486077 -0.031084508273869365 -0.048755991317006357 0.043027745575848507 0.05300577618854959 0.020392078515819763 -0.056729172531538426
leaf_weight=323.90137349069118 242.77496732771397 208.5919925570488 85.336166143417358 171.63379055261612 78.302368402481079 164.19187623262405 269.20544113218784 286.07226595282555 355.4999273866415 125.91560937464237 96.541898816823959 277.08418393135071 47.495563060045242 273.67526412010193 1705.473707228899 138.88383597135544 51.321200281381607 123.48039992153645 102.03744284808636 43.05379082262516 417.08186866343021 55.496917769312859 50.538081288337708 35.997052729129791 358.83120639622211 57.014640226960182 124.13637951016426 64.819038733839989 593.3434574753046 281.34716874361038 146.50054655969143 33.096800819039345 1460.2008813470602 693.27021072804928 131.91940265893936 78.214754462242126 216.06196445226669 34.58143612742424 52.586433708667755 200.85827311873436 575.58860623836517 110.26002302765846 69.090555295348167 46.027834996581078 493.75079245865345
leaf_count=1532 1171 862 375 845 394 874 1561 1286 2010 666 485 1343 255 1167 10673 635 282 689 499 186 1818 317 271 165 2025 277 526 341 2405 1659 779 179 8833 3598 598 390 873 193 238 1167 3424 536 334 252 3099
internal_value=0 -0.0155695 0.0483114 -0.0212728 0.0225737 0.0555265 -0.0283449 0.0225854 -0.033886 -0.0128302 0.0688921 0.00690296 0.0196201 0.0562749 -0.0416814 -0.0303862 -0.0392217 0.0311818 0.0102606 0.00818825 0.0880911 0.0302339 -0.028673 -0.0312998 0.00128766 -0.0122575 0.0424431 0.0677956 0.0936736 -0.0433124 -0.00827563 0.0270956 -0.0422012 -0.00649513 0.052174 0.0145097 0.0841057 0.0746965 0.0610048 -0.0184839 -0.0441979 0.0229558 -0.0518639 -0.0372026 -0.0496497
internal_weight=0 8735.4 2815.69 8093.97 1118.5 641.432 6975.47 1719.92 6104.55 1660.82 425.668 1294.26 540.77 689.761 4443.73 2129.39 1867.02 262.364 870.918 139.596 1095.76 416.086 1120.05 428.743 768.881 526.106 360.589 188.955 1010.43 359.65 493.921 69.0939 1815.7 970.354 292.416 224.715 477.24 166.501 261.178 248.354 626.127 167.275 2314.34 608.869 539.779
internal_count=62087 49059 13028 46212 5593 2847 40619 8430 36111 9304 1957 6473 2879 3196 26807 12449 11125 1324 4508 671 4598 2029 6425 2397 4009 2838 1712 867 4223 2053 2730 344 10843 4941 1457 1169 1973 791 1100 1422 3695 813 14358 3685 3351
is_linear=0
shrinkage=0.06369


Tree=9
num_leaves=46
num_cat=0
split_feature=21 15 15 13 11 20 10 21 21 14 10 14 15 2 11 14 11 11 13 13 14 14 21 11 14 21 14 13 15 2 10 10 10 20 4 14 21 15 11 11 4 9 14 10 4
split_gain=1936.77 1024.78 896.536 674.532 398.638 329.668 244.551 195.226 180.886 174.136 655.088 213.352 189.753 169.479 165.288 161.565 131.037 113.696 104.584 104.203 140.988 91.6371 90.7227 87.1248 86.7384 86.3053 83.5244 97.5382 68.6586 68.0558 82.8119 65.8116 65.6172 65.6138 65.0317 52.4159 47.3604 44.1995 50.0209 43.4387 43.0616 42.8724 41.5746 41.3761 40.9422
threshold=708.85784719524668 89.483440399169936 284.29009988281257 114.8808403015137 20.022692158849853 4161.6711425781259 144.35102081298831 2677.414821116166 237.92124256476731 53.363515064248084 44.313961029052741 87.647121429443374 195.07829284667974 1.0394643545150759 72.25610733032228 36.808771133422859 63.34013253746253 9.4600262641906756 330.87851938974569 209.53253173828128 363.69487521622801 1522.8687086296998 299.54838596947872 49.958431942272007 1865.0504298314488 401.53909451556996 581.14687854415399 187.00481734844649 174.21655320068362 0.3031583726406098 15.785834312438967 31.649727821350101 70.599895477294936 7387.2519531250009 0.17779483642239266 134.62421417236331 1200.0522616903745 354.86641092285163 46.977924346923835 116.3035354614258 0.36108503563867705 13.921285089404366 19.484370231628422 27.244173049926761 106.58447020460564
decision_type=2 10 10 10 10 8 8 2 2 10 8 10 10 10 10 10 10 8 10 10 10 10 2 10 10 2 10 10 10 10 10 10 8 8 10 10 2 10 10 10 10 8 10 10 8
left_child=1 5 33 4 15 8 35 16 29 12 11 23 14 37 25 17 -4 -3 26 20 -8 -20 31 -11 -9 -6 27 -18 -15 30 -1 -7 -31 -2 -14 -5 -35 39 -39 -12 -13 -10 -24 -17 -21
right_child=2 3 7 6 9 22 19 24 41 10 13 40 34 28 -16 43 18 -19 21 44 -22 -23 42 -25 -26 -27 -28 -29 -30 32 -32 -33 -34 36 -36 -37 -38 38 -40 -41 -42 -43 -44 -45 -46
leaf_value=0.017084055450599565 0.10516545086982848 0.022460187384224225 0.038382011148637624 -0.002103821212197726 -0.040396608166239883 -0.029727270321166083 0.02466544604550986 0.097730423433603553 0.033699671570910882 0.038249454444572652 -0.0020281291817991782 0 -0.0092562304159794755 0.024656523590315151 0.054974299453580684 0.060100116371147969 -0.021207443649663312 -0.021064472619540635 0.094854133829969392 0.088193426097159938 -0.058793705573123592 -0.017076334132416496 0.046537801834289315 -0.033358053954883754 -0.014272688452839171 0.010560989811952562 -0.063933687223561103 0.067729042087975894 -0.055874616529429467 -0.034024192819773258 0.093014198478333726 0.04728026224417857 0.060103139069843284 0.033934387112790697 -0.059930322447021366 0.097273065668534678 0.089160885133018133 0.041067974338513079 -0.034569709579117605 0.067222361082334939 0.10763388690656281 0.086227358226904749 0.0022260830799944805 -0.025924815642322359 0.013130765379039141
leaf_weight=214.23642271757126 785.09584778547287 338.26939621567726 266.41942703723907 19.852969512343407 751.43651293218136 376.18438094854355 181.78712375462055 129.50185604393482 101.92166118323803 156.40535241365433 205.47416633367538 16.435927003622055 119.737723082304 37.381882935762405 90.950703412294388 196.25429067015648 358.3497896194458 799.95773978531361 53.805764973163605 65.181546494364738 135.69276905059814 49.236756414175034 154.3048839867115 109.59640724956989 29.811709627509117 154.52031637728214 153.31408433616161 49.660487726330757 1211.590852662921 118.02370844781399 79.37927620112896 42.358365654945374 31.040046870708466 146.6867815554142 2046.6642009913921 215.06468296051025 159.86338239908218 31.599148586392403 291.80950722098351 35.765421256422997 161.12712326645851 470.65844768285751 202.39753946661949 18.224539369344711 65.004305899143219
leaf_count=1018 3245 1663 1225 98 4531 1997 918 540 435 841 1161 70 690 203 484 965 1878 4380 242 283 830 272 716 641 152 803 910 231 7836 605 351 199 135 659 13137 881 650 155 1743 182 709 2038 975 103 307
internal_value=0 -0.0127002 0.0539102 -0.0231028 -0.0292033 0.0304361 0.0368328 0.0127043 0.0541752 -0.0369133 -0.0231236 0.0455197 -0.0466186 -0.0401278 -0.0230818 0.00160416 0.00113045 -0.00791842 -0.0138343 0.00835046 -0.0110523 0.0424508 -0.000671841 0.00802631 0.0760889 -0.0315066 -0.0249039 -0.00890432 -0.0531922 0.0224886 0.040058 -0.0208135 -0.011329 0.0945204 -0.0572499 0.0883918 0.0647765 -0.0106045 -0.0258755 0.00936917 0.0980625 0.0777485 0.0224433 0.0513812 0.0548076
internal_weight=0 9246.29 2181.75 7455.78 6773.2 1790.5 682.583 1090.1 1015.26 5420.5 2257.19 443.565 3163.31 1813.62 996.908 1352.71 930.786 1138.23 664.367 447.666 317.48 103.043 775.245 266.002 159.314 905.957 561.324 408.01 1248.97 442.679 293.616 418.543 149.064 1091.65 2166.4 234.918 306.55 564.648 323.409 241.24 177.563 572.58 356.702 214.479 130.186
internal_count=62087 52083 10004 43614 40297 8469 3317 5450 4582 33186 13541 2261 19645 11280 5818 7111 4758 6043 3533 2338 1748 514 3887 1482 692 5334 3019 2109 8039 2109 1369 2196 740 4554 13827 979 1309 3241 1898 1343 779 2473 1691 1068 590
is_linear=0
shrinkage=0.06369


Tree=10
num_leaves=46
num_cat=0
split_feature=18 21 21 18 18 21 18 14 10 4 15 21 3 21 16 15 16 15 16 18 3 14 10 15 9 15 14 3 14 6 21 10 21 15 21 22 10 16 15 16 18 15 10 9 9
split_gain=2814.13 1002.19 653.214 488.014 292.981 321.816 218.385 153.558 456.896 204.037 117.128 115.559 86.1486 85.7327 79.1666 75.92 71.9415 68.6872 70.9273 66.643 66.2625 68.5848 90.7772 64.2685 58.7171 57.899 59.8702 56.2079 57.1408 53.8752 53.047 52.0578 51.5262 51.214 48.644 102.85 57.6103 43.4018 41.6193 41.4302 38.7046 36.6802 36.5442 35.5607 34.3649
threshold=5601.4656467437753 843.32525497898712 307.5640744020497 23329.018554687504 11100.471460937502 317.60012638843011 2653.3303222656255 80.656786520343317 67.237071990966811 0.13220955682536648 600.79827880859386 599.13363711849513 1.5417185425758364 3740.0077408704105 14410.628000000002 577.24075512695322 38109.708000000006 2211.481157226563 13956.196000000002 2827.2000277343755 0.18775602430105207 49.637193679809577 31.649727821350101 94.509303000000003 13.267112750327671 52.029943466186531 64.29361724853517 0.2655527144670487 45.727584309517177 63.924345218954848 142.29740335603154 5.2481288909912118 559.44936987184167 375.40126037597662 407.55414083050795 171.02599392597133 6.713015317916871 119207.37250000001 115.43155670166017 42903.695000000007 15861.365550994875 60.170562744140632 279.31891521579388 46.601680507753834 32.673486962367413
decision_type=8 2 2 10 10 2 10 10 8 10 8 2 8 2 8 8 8 10 10 10 10 10 8 10 10 10 8 8 10 10 2 10 2 8 2 2 8 8 10 10 10 10 8 8 10
left_child=2 4 6 24 5 10 30 9 33 23 20 12 -4 16 25 27 -5 18 42 -14 -2 -22 -23 -6 -3 -7 32 -8 38 34 -1 -25 -27 -9 -11 -36 -37 -15 -29 -19 -38 -32 -10 -20 -28
right_child=1 3 11 13 7 14 15 8 17 29 -12 -13 19 37 -16 -17 -18 39 43 -21 21 22 -24 31 -26 26 44 28 -30 -31 41 -33 -34 -35 35 36 40 -39 -40 -41 -42 -43 -44 -45 -46
leaf_value=0.0069793860867325974 -0.013753583244945774 0.0817872948825831 0.09160240697627825 0.0046507448176216779 -0.050427903547884165 0.067060058480905696 0.027295354857999249 0 -0.029797295320852069 -0.057867128890646921 0.025840155651910005 0.099656609729596168 0.0692926491098068 0.093252603455948199 -0.010322084868004197 0.054091031054743118 -0.044477765735500038 0.074698377362093879 0.015051209355211871 0.020468261351974503 -0.052634237446630948 0.069878831702625654 -0.029269576832794891 0.038780446053441567 0.029212862248916855 -0.0065092751312510674 0.066504152051120646 -0.0032792137843744521 0.016218139776756395 0.055156782943015722 0.085944432860646708 -0.015516377800116228 0.042541907682701809 0.071307823337531093 0.07775279764246501 0.014609109211943274 -0.015140412240978092 -0.012504737150428881 -0.043938175402492875 -0.02072652463486109 -0.055316636252461436 0.042761919461007651 0.011160222893492429 -0.051974295846139502 0
leaf_weight=92.187539607286453 511.59244011342525 523.17857781052589 274.18886975944042 233.55232055485249 70.197121739387512 125.90109622478485 154.01538769900799 45.411650285124779 224.78080043196678 1941.0804387032986 140.6040014475584 797.33956331014633 229.80530042946339 37.305662095546722 289.71602635085583 89.009329289197922 228.55983680486679 28.421500191092491 26.209767401218414 259.95000150799751 745.3361279964447 36.148736327886581 229.87044575810432 153.86137057840824 129.85633254051208 324.55562449991703 126.51359207928181 189.98953203856945 162.58680185675621 11.520518019795416 181.84464061260223 117.20041699707508 108.41184155642986 198.65419593453407 22.524843245744705 59.717147424817085 143.82660782337189 17.704826384782791 243.93724106252193 28.240231812000275 513.99622769653797 239.15986180305481 129.74726746976376 810.58684414625168 44.312564790248871
leaf_count=438 2873 2173 1173 1163 380 555 759 236 1442 12905 712 3291 957 154 1521 397 1335 128 131 1181 4723 181 1442 747 553 1760 623 931 851 62 755 681 509 907 134 313 820 89 1423 160 3228 1125 720 5208 238
internal_value=0 -0.0186838 0.0538964 0.0357576 -0.0275732 -0.0107658 0.0211512 -0.0374637 -0.020373 -0.0457394 -0.0280209 0.0819127 0.0623495 -0.0101586 0.017229 0.000838897 -0.0196312 -0.0360654 -0.0394061 0.0444469 -0.0332099 -0.0427059 -0.0135661 0.000174501 0.0720578 0.0283873 0.0192914 -0.00575258 -0.0148057 -0.0516037 0.0535456 0.0149305 0.00593481 0.0578247 -0.0522846 -0.0369644 -0.0416003 0.0592585 -0.0268894 0.0278274 -0.047066 0.063038 -0.0144309 -0.0495568 0.0504578
internal_weight=0 8379.1 2914.01 1170.16 7208.94 2682.96 1352.73 4525.98 1492.05 3033.92 1663.55 1561.28 763.944 517.123 1019.41 839.538 462.112 1247.99 1191.32 489.755 1522.95 1011.36 266.019 341.259 653.035 729.695 603.794 750.529 596.514 2692.67 513.192 271.062 432.967 244.066 2681.15 740.065 717.54 55.0105 433.927 56.6617 657.823 421.005 354.528 836.797 170.826
internal_count=62087 48806 13281 5467 43339 15137 6679 28202 8932 19270 9931 6602 3311 2741 5206 4361 2498 7789 7501 2138 9219 6346 1623 1808 2726 3685 3130 3964 3205 17462 2318 1428 2269 1143 17400 4495 4361 243 2354 288 4048 1880 2162 5339 861
is_linear=0
shrinkage=0.06369


Tree=11
num_leaves=46
num_cat=0
split_feature=15 0 13 16 11 20 17 14 0 0 13 17 15 11 14 0 11 15 0 14 12 15 14 11 0 20 12 16 15 14 14 11 20 16 20 12 0 8 5 0 0 12 17 16 14
split_gain=1535.33 802.858 702.745 566.472 395.115 244.526 224.273 203.556 385.159 176.134 171.529 163.782 163.687 153.938 129.367 118.915 115.242 114.131 104.403 222.161 101.915 97.721 94.6119 92.2815 78.7437 84.4879 77.5583 67.3141 62.6245 60.8795 51.3229 45.704 43.0613 42.7062 41.8432 41.1555 47.2269 44.2681 45.8255 40.8441 39.3421 37.5737 37.5154 35.597 35.5781
threshold=117.60361480712892 2.8925500000000004 94.834320068359389 23506.843500000003 60.607398986816413 5446.5398183593761 16699.865500000004 55.769632339477546 0.77305000000000013 0.70155000000000012 147.0214273519305 119299.23750000002 11.704290866851808 106.72034281127073 108.86406735089624 5.4557000000000011 61.653874358915353 382.03854064941413 1.4527500000000002 73.030503735220023 492.76059273253492 217.33274078369143 167.9924011230469 75.695125579833999 3.1914000000000002 3046.7440701171881 16.41105937957764 6894.6135000000004 180.09984600341798 89.532949994869355 27.148929595947269 58.53338458028157 4411.5107421875009 119207.37250000001 7204.4526748657236 12.412338733673097 2.7441500000000008 6.0732003385672906 0.81813046336174022 1.0626500000000003 1.1680500000000003 19.384405758435658 5194.9787500000011 4623.1147500000015 51.639373779296882
decision_type=10 2 8 10 10 10 10 10 2 2 10 8 10 8 10 2 10 10 2 10 10 10 10 10 2 10 10 8 10 10 10 10 10 10 8 10 2 8 10 2 2 8 10 8 10
left_child=4 2 6 10 5 12 7 21 27 20 13 40 30 14 -4 24 -10 -15 28 41 -5 23 -11 32 34 -26 -23 -9 31 -18 -1 -8 42 -22 -3 36 -14 38 -37 -7 -6 -20 -2 -19 -43
right_child=1 15 3 9 11 39 18 8 16 22 -12 -13 35 17 -16 -17 29 43 19 -21 33 26 -24 -25 25 -27 -28 -29 -30 -31 -32 -33 -34 -35 -36 37 -38 -39 -40 -41 -42 44 -44 -45 -46
leaf_value=0.078190407655205268 0.019478851320286691 0.050082120472086711 -0.0053047950813844939 -0.04723316537546058 0.098527478474907601 0.038372111203516454 -0.0352388810873068 0.0104349159884725 0.082194122973114458 -0.01942451035631124 0.081405008763887579 -0.018197652659689523 0.07110479436019658 0.052801456940053691 0.096770323312751108 -0.031100213136775634 -0.015732579619858102 0.043010437171186078 -0.0071602008184858202 0.068955139535451834 0.079026047605337435 0.013907711610852998 0.091434356864182401 0.058095734607836243 0.028376221916234342 0.093941630530102738 -0.045278526774749049 -0.040615233173322503 -0.055155651640804951 0.077963332645216155 0.021840103500722772 0.028927695107982085 -0.038221731331992193 -0.017559416687106796 -0.0094646512379155858 0.019898380434491183 0.016441280624101277 0.031450654977036661 -0.02054942537983679 -0.015201626105633156 0.041290742446489261 -0.050864441751455373 -0.017625998392879174 -0.030013488567703438 -0.0023301377671106141
leaf_weight=419.04118701815605 142.81191316246986 90.612678170204163 67.116499349474907 576.31834082305431 529.39087277650833 55.898715987801552 131.09190230071545 130.85543136298656 236.04218763113022 47.213971838355064 371.47214342653751 55.101304441690445 147.19957718253136 109.26299268007278 156.66745392978191 55.528782725334167 104.5620139092207 21.651384055614471 163.26458144187927 85.501457199454308 31.993783921003342 89.309101194143295 64.513620734214783 60.611155197024345 130.44074103236198 302.74390842020512 1151.0303618013859 400.43533799052238 1823.634890422225 29.242916166782379 96.803244799375534 57.050677701830864 286.75502307713032 26.159523978829384 81.567203998565674 272.55180762708187 136.26083602011204 480.75547327101231 181.32210640609264 518.43774458765984 83.166659310460091 440.22423833608627 387.08839581906796 243.20024736225605 80.321996301412582
leaf_count=1818 763 455 341 3539 2268 290 836 766 1074 250 1587 248 665 539 661 298 587 110 896 372 155 467 266 314 589 1327 7414 2532 12294 130 432 321 1749 141 436 1333 611 2289 909 2729 372 2798 2241 1433 442
internal_value=0 -0.0141733 -0.0201218 0.0155694 0.0391954 0.0264389 -0.0307147 -0.0185223 0.00664157 -0.0258486 0.0475741 0.0822291 0.0383452 0.0254948 0.0662964 0.0526622 0.0560552 0 -0.0437994 -0.0230978 -0.0389826 -0.0292941 0.044998 -0.012588 0.0609182 0.0754357 -0.0408224 -0.0277636 -0.0515123 0.0067617 0.0684215 -0.0145502 -0.018541 0.0361389 0.0217661 0.0251146 0.0465547 0.0181006 0.00330342 -0.00925255 0.0916479 -0.0355028 -0.00717703 -0.0223629 -0.0438374
internal_weight=0 8176.3 7515.4 1715.57 2975.93 2308.27 5799.83 3018.74 901.138 746.199 969.371 667.659 1733.93 597.899 223.784 660.893 369.847 374.115 2781.09 769.312 634.472 2117.61 111.728 877.266 605.365 433.185 1240.34 531.291 2011.78 133.805 515.844 188.143 816.655 58.1533 172.18 1218.09 283.46 934.629 453.874 574.336 612.558 683.811 529.9 264.852 520.546
internal_count=62087 48123 45018 9022 13964 11076 35996 18037 5089 4351 4671 2888 8057 3084 1002 3105 1791 2082 17959 4508 3835 12948 516 5067 2807 1916 7881 3298 13451 717 2250 1157 4753 296 891 5807 1276 4531 2242 3019 2640 4136 3004 1543 3240
is_linear=0
shrinkage=0.06369


Tree=12
num_leaves=46
num_cat=0
split_feature=21 17 19 0 2 13 13 21 19 0 21 21 19 0 2 21 14 12 14 0 19 14 0 0 14 12 14 19 13 14 0 8 14 8 13 0 2 8 0 4 14 17 17 19 2
split_gain=1478.22 783.945 717.233 557.597 436.106 419.374 286.694 215.038 196.97 179.193 168.182 161.335 158.466 143.983 131.249 135.068 112.198 111.994 102.518 262.593 101.227 92.053 85.4284 68.6102 68.3482 66.1431 77.2841 65.613 57.4004 63.2936 56.8705 53.2535 52.5281 52.4517 52.4214 46.0092 45.9298 59.0079 46.1476 45.4615 45.3263 44.0889 42.7235 41.6359 37.5999
threshold=583.91331650476411 29049.689500000004 3808.504440820313 3.2604500000000005 0.84520630290370857 114.8808403015137 97.779609680175795 1110.2879543333827 7387.249391555787 0.55220045000000006 2677.414821116166 172.72970652035784 15516.265625000002 1.3363500000000001 0.97912263870239269 326.33556380940007 64.29361724853517 28.38363075256348 60.065122604370124 0.97565000000000013 1794.5315000000003 38.923839700640436 5.4557000000000011 1.2133500000000004 1865.0504298314488 55.004575729370124 85.742778778076186 5176.2148437500009 330.87851938974569 1522.8687086296998 0.29191800000000007 51.631052017211921 677.33279418945324 31.337565590004495 187.00481734844649 2.9348000000000005 0.21711670908614786 26.934320449829105 4.4234500000000008 6.1448569939602189 56.385766983032234 36020.103500000005 17809.699000000004 3856.7631015777592 0.3031583726406098
decision_type=2 8 8 2 10 10 10 2 10 2 2 2 10 2 10 2 8 10 10 2 10 10 2 2 10 10 10 10 10 10 2 10 10 10 10 2 10 10 2 8 8 8 10 8 10
left_child=2 7 4 5 11 8 13 12 14 41 17 44 21 -6 15 16 33 -3 31 -20 -13 -2 27 -16 -12 -21 -27 -5 32 -30 -8 35 34 -4 43 -10 38 40 -22 -25 -38 -7 -23 -19 -1
right_child=1 10 3 22 6 9 30 -9 18 -11 24 20 -14 -15 23 -17 -18 28 19 25 36 42 -24 39 -26 26 -28 -29 29 -31 -32 -33 -34 -35 -36 -37 37 -39 -40 -41 -42 -43 -44 -45 -46
leaf_value=0.014651182557411813 0.080205610876865271 0.047809864114250471 -0.035762835991219828 0.00090474446730156536 -0.045189276327605526 0.018478151775145054 0 0.090662894680258885 -0.057098064375918411 0.07706067418753236 0.082597764935382428 0.079399247336801065 -0.0075724217765698191 0.044685165022523857 -0.052683814019580867 0.016902499723682452 0.033289817638961619 0.027533336102108702 -0.049837765314219191 0.071121307572711498 0.056909681445385205 0.047615086352369759 -0.029501739761821091 -0.018595603054366132 -0.019165228082485958 -0.044812726777189477 0.046567493214848203 0.057609412143757997 0.07618905981216316 -0.023005194197007101 0.07553174295457582 0.029201417730282602 -0.064039989978132719 0.042314885012906263 0.039017193226321974 -0.010835600767118708 -0.0090935739316619895 0.073310759850100507 -0.021504397826485701 0.082610635430880083 0.049682408379802562 -0.035889827733482232 0.0023577609039761929 -0.03257384643357987 -0.029849422566554523
leaf_weight=225.44871728122234 378.71146728098392 90.897560030221939 786.37915062904358 114.0240243524313 653.06912091374397 118.57941535115242 52.428135335445404 780.08630226552486 2081.1381748169661 177.26411302387714 103.21728309988976 345.76241725683212 183.20886813104153 73.015181750059128 547.38956435024738 487.05537974834442 111.72385063767433 43.151085823774338 540.65652340650558 88.978980898857117 366.79850655794144 321.77329532802105 63.566220417618752 47.723980396986008 28.648675158619881 65.63309933245182 68.657014682888985 370.17421537637711 39.052710741758347 49.113131493330002 123.92971678078175 23.728334158658981 144.82426272332668 28.177468672394753 46.108033016324043 104.7144612967968 219.06004990637302 55.119570583105087 25.90595880150795 18.110137969255447 61.011381044983864 105.73503258824348 125.67113626003265 442.40193139016628 107.09681297838688
leaf_count=1100 1639 402 4804 524 4049 615 280 3301 14300 754 438 1493 980 346 3786 2522 576 204 3826 421 1705 1495 351 271 150 411 301 1638 181 281 540 139 937 158 229 581 1163 268 113 83 286 648 656 2527 615
internal_value=0 0.0402324 -0.0134208 -0.0251155 0.0166275 -0.0313463 -0.017708 0.0652874 -0.0363945 0.0305922 -0.00516327 0.0387565 0.0449621 -0.0355418 -0.0208114 -0.00987324 -0.0241548 -0.0157684 -0.046876 -0.0259299 0.0506855 0.0567736 0.035602 -0.0453081 0.0594613 0.0309681 0.000724506 0.0448231 -0.0239524 0.0218395 0.0531914 -0.0539247 -0.0303468 -0.0324799 -0.020059 -0.0550047 0.0361157 0.0174217 0.0509995 0.0128321 0.00413936 -0.00677884 0.0355308 -0.02654 0
internal_weight=0 2776.87 8258.05 5949.41 2308.65 5401.64 902.442 1789.45 5000.07 401.579 987.415 1406.2 1009.36 726.084 2026.56 1413.34 926.28 855.549 2973.51 763.926 1073.66 826.156 547.764 613.224 131.866 223.269 134.29 484.198 764.651 88.1658 176.358 2209.58 676.485 814.557 531.661 2185.85 727.895 335.191 392.704 65.8341 280.071 224.314 447.444 485.553 332.546
internal_count=62087 13420 48667 36709 11958 34196 5215 8071 32179 2017 5349 6743 4770 4395 12200 8060 5538 4761 19979 4959 5028 3790 2513 4140 588 1133 712 2162 4359 462 820 15020 3897 4962 2960 14881 3535 1717 1818 354 1449 1263 2151 2731 1715
is_linear=0
shrinkage=0.06369


Tree=13
num_leaves=46
num_cat=0
split_feature=21 15 15 13 11 11 14 21 17 17 14 10 14 17 15 10 14 17 11 15 2 21 17 12 10 21 21 12 10 12 10 21 2 13 10 13 10 14 2 10 7 11 9 17 10
split_gain=1324.7 724.653 579.343 510.701 298.673 267.118 230.807 206.785 175.574 173.69 172.623 500.472 161.639 127.835 112.507 98.4851 97.0813 90.9882 85.7028 76.6235 73.1148 61.0998 61.0781 54.4532 50.4112 48.3742 47.5151 44.5053 40.9974 40.6434 40.1742 39.2483 37.6018 36.705 36.6789 36.6207 34.3141 33.8812 33.2853 57.8464 33.1932 32.8704 31.6623 35.3975 31.5767
threshold=749.53103652727009 117.60361480712892 378.54796063476573 125.17667388916017 24.125310342078595 60.607398986816413 36.808771133422859 239.39862417540868 34811.711500000005 32313.375000000004 53.947480110226259 47.476633071899421 77.284709930419936 8516.8080000000027 197.06440593994145 4.7864339351654062 16.21184062957764 55437.861500000006 86.094734006142531 8.7213053703308123 1.3397595882415774 1378.6752119855482 39833.510000000002 56.273529586712364 215.87101745605469 3740.0077408704105 392.18269108865474 492.76059273253492 131.75021667066906 261.45109962247085 27.635191917419437 454.34260368917859 0.20127845555543897 197.10154407351732 94.349720001220717 81.01950836181642 53.951989783577581 21.815135002136234 0.30818913877010351 20.058238029479984 40.975273572747717 63.34013253746253 9.5860229687845067 20642.658000000003 31.229721819693399
decision_type=2 10 10 10 10 10 10 2 8 8 10 8 10 10 10 8 10 8 10 10 10 2 8 10 10 2 2 10 8 10 10 2 10 8 10 10 8 10 10 10 10 10 8 8 10
left_child=1 5 22 4 6 7 15 19 21 24 14 12 23 35 18 -3 -9 -7 26 -1 40 33 -2 44 -5 27 -6 36 -11 -30 -8 37 -16 41 -34 -13 -10 -17 39 -21 -15 -4 -18 -44 -12
right_child=2 3 8 9 10 17 30 16 25 28 11 13 -14 20 32 31 42 -19 -20 38 -22 -23 -24 -25 -26 -27 -28 -29 29 -31 -32 -33 34 -35 -36 -37 -38 -39 -40 -41 -42 -43 43 -45 -46
leaf_value=0.023189208642641346 0.083090576543928735 0.014014808209405658 0.0343738046743352 0.077983115714638729 -0.037632591398580932 0.078250842654296313 0.055889859942041077 0.05171936029081442 0.012641295665388219 0.046272736864333017 0.043165770470191885 -0.013819406204275214 0.072174050137187987 -0.028695925795749103 -0.036926719343806105 -0.044895888241747381 -0.017764253510172089 -0.024267911794916216 0.058498612799419654 -0.021082366468215503 -0.055908231480859952 0.068875362538004581 0.031976186429549275 -0.043133286924917275 0.019074701531814838 0.037667034368476182 0.0057609467919860057 0.035397973983214558 -0.038531248408070526 0.023625474278465324 -0.021982124341064706 0.0030072181134674493 -0.062059340739058437 0.067800500192553528 0 0.032802831959154649 -0.040744330266038166 -0.014281632931089425 -0.045315613144830867 0.045074666875982883 0.031578568687867653 -0.014467336197526768 0.028496233989701965 -0.0092435520302485766 -0.015000387539761842
leaf_weight=178.66367226839066 980.51894362270832 344.44083718955517 84.387898027896881 256.88114993274212 483.72189827263355 348.20564603805542 267.10837495326996 446.36746479570866 48.211970061063766 37.810331270098686 87.380005732178688 225.73717674612999 242.73819437623024 459.09743552654982 477.13639801740646 385.96341649442911 106.02394051849842 32.719733193516731 40.841384902596474 429.3098309636116 912.49019819498062 153.29555529356003 132.06613728404045 77.582222744822502 94.421452775597572 44.66940726339817 118.80580131709576 33.800614416599274 135.29030759632587 51.084408968687057 22.388250067830086 142.9730142056942 1279.9434602484107 39.506425112485886 35.822353363037109 88.718479543924332 324.87680943310261 281.60286095738411 187.73252375423908 52.342152148485184 31.259442359209061 130.15401123464108 381.70933277904987 123.70669737458229 52.134923860430717
leaf_count=838 4246 1772 381 1100 3215 1522 1318 2025 233 161 467 1377 1062 2910 3270 2374 500 158 210 2268 6602 647 583 492 457 202 642 176 876 246 133 721 9403 169 235 465 1968 1694 1070 266 191 667 1807 635 333
internal_value=0 -0.0103388 0.0472515 -0.0210047 -0.0264741 0.0204936 -0.00107021 0.0105278 0.00760678 0.0358641 -0.0343767 -0.0210832 0.0373018 -0.0369123 -0.0460819 -0.0139809 0.0292661 0.0687028 -0.0223985 -0.0127047 -0.0450977 0.0377012 0.0774394 -0.00210889 0.0633796 -0.0193587 -0.0288391 -0.0266174 -0.00722174 -0.0203686 0.0488841 -0.026102 -0.0543527 0.0167486 -0.0602887 0 -0.0332891 -0.0325457 -0.0226895 -0.0129429 -0.0240804 0.00453059 0.0121562 0.0189339 0.0206579
internal_weight=0 8920.15 1971.49 6633.37 6057.89 2286.78 1444.48 1905.86 858.903 575.488 4613.41 2177.14 459.835 1717.3 2436.27 1154.98 1057.81 380.925 643.369 848.048 1402.85 407.344 1112.59 217.097 351.303 451.559 602.528 406.889 224.185 186.375 289.497 810.539 1792.9 254.048 1315.77 314.456 373.089 667.566 669.385 481.652 490.357 214.542 611.44 505.416 139.515
internal_count=62087 52815 9272 41726 38886 11089 8012 9409 4443 2840 30874 13899 2354 11545 16975 6561 4967 1680 4067 4442 9703 1864 4829 1292 1557 2579 3857 2377 1283 1122 1451 4789 12908 1217 9638 1842 2201 4068 3604 2534 3101 1048 2942 2442 800
is_linear=0
shrinkage=0.06369


Tree=14
num_leaves=46
num_cat=0
split_feature=15 0 13 19 0 14 15 19 2 0 13 14 11 14 19 2 13 0 0 14 11 15 0 14 0 0 19 6 19 0 15 14 11 19 11 8 14 19 19 14 12 15 11 14 11
split_gain=1126.21 629.828 549.005 525.63 470.177 337.201 209.276 206.321 220.153 177.688 140.551 140.357 133.575 131.346 118.086 97.9474 96.789 96.5103 92.0401 91.9431 267.747 86.8519 83.4588 81.1509 76.6493 72.3112 93.3464 72.2465 71.4777 57.0239 56.8876 55.1023 48.3014 47.0525 43.55 42.4726 47.3242 41.9103 40.5966 39.5259 37.759 36.6902 33.9905 51.5616 33.8256
threshold=117.60361480712892 2.8496000000000001 86.700485229492202 5176.2148437500009 0.70155000000000012 108.86406735089624 382.03854064941413 6442.5249099731454 1.2138278484344485 1.2040500000000003 197.10154407351732 873.05722045898449 54.115865707397468 48.721427847074672 8722.5219726562518 0.32649555802345281 453.93717956542974 0.65614035000000015 5.4557000000000011 61.611766761168845 41.082013689692765 217.33274078369143 1.0548500000000003 363.69487521622801 2.6137500000000005 3.4259000000000008 6798.0904316406259 13.515147436806446 15195.687500000002 0.15603320000000001 395.05133056640631 66.05980932602553 14.39320244389336 8804.1031445312528 11.452347083341921 18.527966499328617 85.742778778076186 2449.259399414063 2492.2561312500006 8.5047235488891619 130.76104736328128 206.86729431152347 49.513656616210945 58.463087081909187 17.986012458801273
decision_type=10 2 8 8 2 10 10 10 10 2 10 10 8 10 10 10 10 2 2 10 10 10 2 10 2 2 10 10 8 2 10 10 10 10 10 8 10 8 10 10 10 10 8 10 8
left_child=3 2 7 12 6 -6 40 8 13 -10 23 -12 15 21 39 24 -13 -15 25 44 -21 27 -16 33 38 28 -27 37 41 -18 -30 -19 -23 -8 -17 36 -22 -2 -1 -5 -4 -3 -41 -44 -9
right_child=1 18 4 14 5 -7 10 19 9 -11 11 16 -14 17 22 34 29 31 -20 20 35 32 -24 -25 -26 26 -28 -29 30 -31 -32 -33 -34 -35 -36 -37 -38 -39 -40 42 -42 -43 43 -45 -46
leaf_value=0.086174836626278353 0.028652477067117293 0.010158445337371135 0.013868252055221138 0.049011444481233783 -0.015278491122761723 0.084469534959267872 0.0027996301623787593 -0.026091191986445328 -0.050610634717659045 0.048567047248019968 0.061942753456105261 -0.058910305627758758 0.086097898993434493 -0.010397699928601099 0.041278238375391629 0.066542763822830878 -0.010143907865045069 0.018851971306450555 -0.029675285292132238 0.065076551964895868 -0.032172213664864016 0.015590526122016784 -0.028215523709780473 -0.063569038731192226 0.022570716037828772 0.024546473406422308 0.09678882677589995 0.08142592634127957 -0.037660464956014668 0.089181076613380525 0.048500861133911076 0.075437112426231204 -0.037944702841124771 -0.037841061348815826 0.0019657481096034923 -0.045291438843774824 0.047068880273983413 -0.012422389343736856 0.047393404775797732 0.0014482330876054044 0.078174984307970971 0.074319933423554863 0.056500926697751787 -0.0062596825439745468 -0.05098617950138748
leaf_weight=304.90073977410793 125.5567424595356 66.277024552226067 76.283488698303699 148.63095855712891 188.88163083046675 454.46072515845299 199.7415676265955 317.67044779658318 760.87025318294764 73.080792032182217 128.81559206545353 111.43737496435642 495.50278387963772 172.82561377435923 73.014705568552017 44.224594980478287 53.090841993689537 158.40649570524693 54.095170095562935 115.8586713373661 71.855475589632988 70.18683497607708 479.92385458946228 293.80994515120983 221.92031054198742 127.67819046974182 217.17165581882 37.677997015416622 86.469739250838757 29.38063807785511 37.767001964151859 146.76320779323578 484.50488842278719 242.18721111863852 263.03939981758595 497.88268619775772 41.5458954423666 397.21588362753391 276.8618048876524 427.7381803393364 93.477850124239922 107.88741874694824 129.76680640876293 76.925773531198502 1772.3288197591901
leaf_count=1304 640 331 424 687 1014 1909 1135 1930 5336 368 606 713 2166 1036 375 197 287 843 298 533 430 354 2680 2039 967 561 907 192 451 128 187 652 3169 1589 1265 3612 190 2318 1272 2117 432 514 589 345 12995
internal_value=0 -0.0125343 -0.0182236 0.033645 0.0112908 0.0550973 -0.0117248 -0.0287896 -0.014998 -0.0413484 -0.022429 0.0120248 0.0581094 -0.000964777 0.00393607 0.0449589 -0.0214326 0.0265939 0.0448385 -0.0405377 -0.0203078 -0.0130297 -0.0182909 -0.0377334 0.0566418 0.051644 0.0716594 0.00439882 0.026721 0.0280826 -0.00887601 0.0478108 -0.0307508 -0.0193741 0.0132199 -0.037382 -0.000594894 -0.00196416 0.0688808 0.0198678 0.0521127 0.0523154 0.0122634 0.032993 -0.0473939
internal_weight=0 7813.14 7115.8 2942.45 1871.57 643.342 1228.22 5244.23 2427.09 833.951 1058.46 322.724 1606.45 1593.14 1336 1110.95 193.909 477.995 697.346 2817.14 727.143 1115.14 552.939 735.739 803.683 643.251 344.85 560.451 298.401 82.4715 124.237 305.17 554.692 441.929 307.264 611.284 113.401 522.773 581.763 783.062 169.761 174.164 634.431 206.693 2090
internal_count=62087 48123 44874 13964 10276 2923 7353 34598 14908 5704 6497 1734 7171 9204 6793 5005 1128 2531 3249 19690 4765 6673 3055 4763 3543 2951 1468 3150 1483 415 638 1495 3523 2724 1462 4232 620 2958 2576 3738 856 845 3051 934 14925
is_linear=0
shrinkage=0.06369


Tree=15
num_leaves=46
num_cat=0
split_feature=18 22 22 0 18 22 18 18 12 12 12 2 0 22 18 12 2 0 12 0 2 22 2 18 18 9 8 12 12 0 22 1 0 18 12 2 12 18 2 2 12 0 2 6 0
split_gain=1918.8 531.389 479.083 459.064 257.633 263.465 209.931 166.186 153.371 130.352 107.24 103.399 71.7434 61.6539 60.7725 50.6919 51.9418 49.8278 48.654 143.985 78.4728 66.4169 65.8383 45.9702 45.1331 44.5564 44.2944 43.3796 39.2211 37.3851 37.3688 38.5562 34.9897 31.7142 35.0976 29.4121 36.3942 29.221 26.1567 24.6947 23.6482 22.7273 22.6434 33.8404 32.8667
threshold=6234.5629785156261 1126.8170691838509 301.99469330618797 3.1341000000000006 11100.471460937502 332.2821669018777 2653.3303222656255 42225.603515625007 261.45109962247085 61.47276111581801 77.928794860839858 0.32649555802345281 5.8686500000000015 180.50389690880164 7081.0911328125012 38.319714708001293 0.76170688867568981 3.9531000000000005 81.285642827235293 0.70825000000000016 4.2382011413574228 475.35103668004916 2.1646573543548588 18872.872070312504 40831.263671875007 5.3053339789272131 7.0503125190734872 11.141131740523312 12.778657877174341 1.7890500000000003 433.76457829719635 0.29251841194429634 0.41260000000000002 25062.075195312504 113.37360763549806 1.1253772377967837 95.278984069824233 23094.086914062504 0.036338909263457154 0.21711670908614786 168.41824645260206 3.5262000000000007 0.7754887342453004 10.248548030853273 1.5977500000000002
decision_type=8 2 2 2 10 2 10 10 10 8 8 10 2 2 10 8 10 2 10 2 8 2 8 10 10 10 10 10 10 2 2 10 2 10 10 10 10 10 10 10 10 2 10 10 2
left_child=2 3 6 4 5 10 15 -3 18 11 13 26 14 -2 -5 16 -1 30 21 22 37 -6 33 -23 -10 -7 28 -15 -8 -13 31 -4 40 34 -20 -11 -37 -21 -30 -28 -12 -16 43 -29 -44
right_child=1 7 17 12 8 25 9 -9 24 35 32 29 -14 27 41 -17 -18 -19 19 20 -22 23 -24 -25 -26 -27 39 42 38 -31 -32 -33 -34 -35 -36 36 -38 -39 -40 -41 -42 -43 44 -45 -46
leaf_value=0.046143428313233578 -0.042147620769035395 0.070193559974814884 0.065000075683164488 -0.002023779946789843 -0.047128207813023903 0.040351808733936109 0.030847422650550568 -0.016045959719864219 0.053090713957303165 0.075242650803949429 -0.028895440518742686 -0.033131051887181448 -0.055054380834598488 0.03227952486618816 0.01987053718850753 0.075015977438709802 -0.0089938430102972505 0 -0.013004689506665973 0.016183347708687314 0.070657700337414045 0.011839545580319947 -0.050059385068312263 -0.033360046090202079 -0.010361426876005332 0.00016483552158815228 0.066345362138277131 -0.017442483647761832 0.015525466819851877 0.013099118548547721 0.084292149581086162 0.010123665587002242 0.044447817563623843 -0.036445736146731397 0.049498937339912438 -0.0097833337982868446 0.05910994309130712 -0.026137585475543013 -0.022153217738013972 0 0.042081411628189853 0.054573210674676999 -0.04545387259565567 0.032498480690354312 0.021211661118456501
leaf_weight=335.74118967354298 664.75177747011185 344.38877508044243 336.07938025891781 133.56646314263344 2456.9463077113032 385.00879646837711 150.34095883369446 114.70619404315948 85.805883392691612 102.49976172298193 60.024483166635036 393.46512388437986 30.11994394659996 62.069474697113037 137.6174149364233 235.56190586090088 77.925985038280487 40.456991791725159 92.727351076900959 114.09699150174856 60.309882782399654 131.77525307238102 670.3308567404747 242.20089741051197 77.257553234696388 168.31898127496243 81.9560157507658 440.7436102181673 107.72178742289543 75.979969270527363 784.45671761035919 73.811342269182205 109.81361233443022 98.784088611602783 47.801181137561798 56.887924961745739 49.290888600051403 132.17597988247871 191.62376339733601 37.245547957718372 17.695830523967743 333.75529332458973 200.1548970490694 53.420710325241089 26.641547337174416
leaf_count=1455 4578 1483 1446 618 18155 1780 679 623 393 458 412 2399 170 314 648 1042 395 170 635 630 269 631 4842 1418 457 848 399 2610 530 398 3478 344 540 663 271 318 219 746 991 191 79 1461 1441 311 149
internal_value=0 -0.0173567 0.0419502 -0.0217203 -0.0268634 -0.0089932 0.0215734 0.0483819 -0.0360794 0.00602929 -0.0218903 -0.00317073 0.0295366 -0.0278099 0.0346737 0.0507461 0.0353871 0.072773 -0.0385393 -0.0271703 0.00995684 -0.043276 -0.0398434 -0.0170808 0.0229594 0.0285982 0.0148198 -0.0151286 0.00492976 -0.0252066 0.0751149 0.0558945 0.0222354 -0.00986975 0.00863018 0.0510276 0.0226088 -0.00598025 -0.00800091 0.0482004 -0.00840195 0.0452827 -0.0197436 -0.0112865 -0.036463
internal_weight=0 7493.01 3131.05 7033.92 6398.86 2188.64 1896.24 459.095 4210.21 1247.01 1635.32 1038.33 635.059 1447.78 604.939 649.229 413.667 1234.8 4047.15 1216.23 306.583 2830.92 909.643 373.976 163.063 553.328 568.888 783.03 449.687 469.445 1194.35 409.891 187.534 239.313 140.529 208.679 106.179 246.273 299.346 119.202 77.7203 471.373 720.961 494.164 226.796
internal_count=62087 47175 14912 45069 42172 13062 9474 2106 29110 6582 10434 5587 2897 9403 2727 2892 1850 5438 28260 8056 1645 20204 6411 2049 850 2628 2790 4825 2200 2797 5268 1790 1031 1569 906 995 537 1376 1521 590 491 2109 4511 2921 1590
is_linear=0
shrinkage=0.06369


Tree=16
num_leaves=46
num_cat=0
split_feature=18 22 22 13 11 16 18 18 13 2 18 13 2 22 15 8 13 15 13 8 10 15 12 2 8 11 15 2 13 11 15 22 15 16 12 2 11 11 18 15 10 16 7 2 11
split_gain=1704.2 473.491 432.299 240.68 264.849 207.232 182.225 148.963 140.757 124.064 121.19 105.264 124.014 102.044 84.8855 70.2006 66.6281 53.7174 49.8195 46.5839 44.9896 44.8003 44.7064 45.392 41.4157 38.9627 41.3344 38.0737 37.785 158.277 50.8559 37.1129 35.8604 35.3813 31.7349 30.9913 29.1704 28.8506 28.767 28.3821 27.199 26.7049 26.6355 26.309 25.5463
threshold=6234.5629785156261 1126.8170691838509 301.99469330618797 125.17667388916017 24.81372165679932 26700.102500000005 2653.3303222656255 40831.263671875007 53.713531486558175 0.32649555802345281 11889.516500000002 71.297603607177749 0.42406356038527987 406.47321518369307 314.69597000000005 15.065441144464559 163.45846368956521 266.35628918457036 453.93717956542974 9.3408832550048846 4.1768861674422633 206.86729431152347 38.319714708001293 0.76170688867568981 83.834884643554702 139.65670013427737 300.19352722167974 1.7983286976814272 74.611533405238347 74.999935150146499 411.96925354003912 489.05407350027809 195.07829284667974 14306.911000000002 12.778657877174341 0.08477444946765901 93.734680175781264 10.468173503875734 17437.205500000004 72.714640000000017 68.48270416259767 75877.260000000024 7.5611573277450654 0.10192945011396357 148.45467895311688
decision_type=8 2 2 8 10 8 10 10 10 10 10 10 10 2 8 10 10 10 10 10 10 10 8 10 8 8 8 8 10 10 8 2 10 10 10 10 10 10 10 10 8 8 10 10 10
left_child=2 3 6 4 13 16 22 -3 9 19 11 12 15 14 20 31 25 -17 24 34 -2 -4 23 39 -7 26 -5 -13 35 -30 44 -6 -21 -27 -8 42 -29 -11 -15 -1 -32 -20 -12 -36 -31
right_child=1 7 21 5 10 18 8 -9 -10 37 28 27 -14 38 -16 17 -18 -19 41 32 -22 -23 -24 -25 -26 33 -28 36 29 30 40 -33 -34 -35 43 -37 -38 -39 -40 -41 -42 -43 -44 -45 -46
leaf_value=0.059716317072821171 -0.0052557898465849665 0.067157353583304324 0.077867088398513445 0 -0.020999226855380183 0.0081806907429647444 0.029975502665575745 -0.013739220305881665 0.049974997092759536 0.029539971079678172 -0.030860894598858709 0.038588062831998053 -0.043940350923729499 0.042326257151147628 0.016926615900100028 0.072978819921235324 0.062525582552757739 -0.017569614663154862 0.071749784370084058 0.081473036263475074 -0.032029879267139731 0.047502502897646848 0.07019088449520218 -0.0085015309779629539 -0.045410129215279399 0.019023990796978578 0.066556568626809601 0.031708032656412907 0.038357304671088568 -0.020403903615072917 0 0.032969059728331494 -0.00021218414450639611 -0.037641303847082128 0.011658896174855042 -0.050346635639092349 -0.028539903826213707 -0.033228908914414074 0 0.019260581595589858 -0.054379962582330188 -0.012373390930182533 0.039649947942226357 -0.023612474999714854 0.039855195578375843
leaf_weight=186.99921290576458 493.61873326450586 335.85743430256844 848.42961576581001 71.872524961829185 436.09863394498825 65.133573390543461 152.9889340698719 118.70326386392117 229.40215864777565 23.12096007168293 300.3449098020792 139.82316430658102 740.67048891633749 205.34384071081877 322.41704928874969 66.110004305839539 212.61611178517342 33.489584669470787 22.577472716569901 59.230398625135422 567.84821688383818 370.63927926123142 236.23614816367626 77.653158769011497 268.26362109184265 91.786449089646339 81.977019540965557 40.239370249211788 112.68722434341908 99.592248179018497 44.960063226521015 49.216483637690544 26.297545067965984 71.491172194480896 175.81051144003868 1664.2385777235031 87.700796410441399 427.09736968576908 91.944100506603718 151.07744723558426 465.81556367129087 21.380260020494461 14.730386503040789 149.38223050534725 30.352237068116665
leaf_count=773 2615 1460 3805 369 2744 341 685 646 1075 115 2078 697 5354 898 1843 349 928 228 100 265 3643 1633 1042 395 1829 455 356 215 551 654 254 214 146 419 875 13005 534 2636 476 682 3521 119 105 785 175
internal_value=0 -0.0165396 0.0395959 -0.0207093 -0.0253306 0.00966775 0.0203009 0.0457972 0.00575186 -0.00439839 -0.0336596 -0.0193575 -0.0267422 -0.00374233 -0.0111265 -0.00438876 0.0352761 0.0419238 -0.0258354 0.0152386 -0.0198654 0.0691352 0.0473941 0.0329824 -0.0345045 0.0154215 0.0377403 0.0163157 -0.0418582 -0.0285686 -0.0409192 -0.0147491 0.0566703 -0.00540253 0.00668706 -0.0466996 -0.00762308 -0.029189 0.0294846 0.0429696 -0.0498809 0.0319511 -0.0261616 -0.00421789 -0.00364563
internal_weight=0 7368.9 3114.36 6914.34 6007.24 907.098 1895.3 454.561 1243.33 1013.93 4326.07 1593.35 1325.59 1681.17 1383.88 584.915 529.743 99.5996 377.355 563.71 1061.47 1219.07 651.966 415.73 333.397 317.127 153.85 267.763 2732.72 753.407 640.72 485.315 85.5279 163.278 478.182 1979.31 127.94 450.218 297.288 338.077 510.776 43.9577 315.075 325.193 129.944
internal_count=62087 47175 14912 45069 40153 4916 9474 2106 6582 5507 30678 10335 8889 9475 8101 3535 2527 577 2389 2756 6258 5438 2892 1850 2170 1599 725 1446 20343 5155 4604 2958 411 874 2345 15188 749 2751 1374 1455 3775 219 2183 1660 829
is_linear=0
shrinkage=0.06369


Tree=17
num_leaves=46
num_cat=0
split_feature=18 22 0 22 18 14 0 22 18 17 12 14 14 0 12 3 0 16 6 16 18 12 22 17 17 22 9 14 11 18 8 12 12 22 11 12 14 0 22 14 14 14 12 18 22
split_gain=1513.36 421.977 398.623 389.742 225.721 220.413 527.467 219.076 165.374 138.623 104.127 94.791 91.6801 128.811 89.6075 64.7621 64.6738 62.3321 59.322 56.3602 54.2601 52.9879 49.2812 47.3122 47.1164 46.8601 47.5734 45.8745 40.5859 40.395 37.9191 37.1603 34.1975 33.079 31.054 26.6454 26.3606 53.6094 25.5688 25.1661 24.4897 24.4782 24.2297 23.7723 23.6557
threshold=6234.5629785156261 1126.8170691838509 3.1341000000000006 306.31312541183144 11100.471460937502 80.656786520343317 0.70825000000000016 332.2821669018777 2653.3303222656255 63769.505000000005 74.721768779341815 108.86406735089624 49.637193679809577 0.7359500000000001 261.45109962247085 0.55780944228172313 5.8686500000000015 17496.628500000003 63.924345218954848 38109.708000000006 7175.4661308593759 127.70702432422833 206.41508287430892 16543.633000000005 3308.8233000000005 567.1568473694465 156.1975074824559 77.284709930419936 73.563240051269545 1534.5213403701785 7.0503125190734872 35.153136405515404 74.02087783813478 728.51347630105511 9.4600262641906756 43.323218829399146 47.362040357276335 0.53074270000000012 2083.8265704120281 5.7952442169189462 36.503439900003748 75.788021087646499 14.217495084036956 24767.257906250004 180.50389690880164
decision_type=8 2 2 2 10 10 2 2 10 10 8 10 8 2 10 8 2 8 10 8 10 10 2 8 10 2 8 10 10 10 8 8 8 2 10 10 8 2 2 10 8 10 10 10 2
left_child=3 2 4 8 7 18 14 12 29 38 15 28 24 21 23 22 20 -9 33 -16 -4 -14 30 -7 -2 26 -5 -15 -8 -1 34 -31 44 -6 -10 -35 42 -38 43 -22 -36 -39 -17 -3 -26
right_child=1 9 16 25 5 6 11 17 10 -11 -12 -13 13 27 19 36 -18 -19 -20 -21 39 -23 -24 -25 32 -27 -28 -29 -30 31 -32 -33 -34 35 40 -37 37 41 -40 -41 -42 -43 -44 -45 -46
leaf_value=0.064411345222517041 0.0100936782733185 0.054262157273873256 -0.001517474013708535 0.028180299290330165 -0.047934453622100665 -0.014804285628415962 0.036607197383923915 0.038993805547078965 0.033296535702082436 -0.017660984520107718 0.056913533651966108 0.070654455721316012 -0.034070482734407402 0.012610522039234802 0.056404320728273422 0.0078511407376921118 -0.053479523428399491 -0.0079061074154906808 0.065939604919151823 -0.021076057357950397 -0.0045032534022857998 0.040244868118407995 0.058140113506418963 -0.049209001612578872 -0.047347425481972794 0.079929678171265686 0.067388283783325481 0.074919403687140923 -0.032724394835959812 0.012059629994620959 0.039205228717770664 0.053329743245805264 0.030743150365995349 0.023142214423359113 -0.030232705268691592 -0.037821726119863425 -0.02817189454752449 0.0090183844206513947 0.082099828209210968 0.046893441858935798 0.02739002053695969 0.072811863262706361 -0.027090219565302717 0 -0.025187653932251031
leaf_weight=271.48362183570862 95.566596657037735 125.89865407347679 136.4505726993084 257.34600321948528 2334.8199294060469 230.92121058702469 61.219049252569675 406.27055176347494 48.661764562129974 107.14127218723297 134.09000816941261 260.77902507781982 271.76964325457811 127.97666336596012 57.071173459291458 87.378271400928497 29.14710322022438 148.34888206422329 11.437862321734427 81.562394142150879 34.482812449336052 36.491433903574944 91.717603772878647 823.44937279075384 476.43771710991859 588.34155471622944 336.16018578410149 82.459084540605545 59.576935857534409 231.43941535055637 91.273779258131981 158.96695205569267 23.07449921220541 47.192581862211227 155.51766326278448 51.210922375321388 91.584020383656025 75.712797693908215 169.32208304107189 436.90592488646507 27.174033887684345 37.029295310378075 411.17480675876141 47.243651673197746 474.29561246931553
leaf_count=1155 581 544 632 1124 18071 1633 276 1893 223 603 609 1122 1979 697 253 416 170 735 62 495 156 176 424 6377 3469 2765 1455 355 348 1060 443 715 126 211 837 262 598 381 750 1939 133 158 2416 209 3051
internal_value=0 -0.0157494 -0.019731 0.0373953 -0.0247072 -0.0336084 -0.0147632 -0.00787099 0.0193753 0.043399 0.0055145 0.0495662 -0.0199512 0.00171952 -0.0356675 -0.000861276 0.0278623 0.0262175 -0.045592 0.0109987 0.0326676 -0.0239623 0.0187427 -0.0419965 -0.0305531 0.0661051 0.0512564 0.0396116 0.00120623 0.0449575 0.00591977 0.030005 -0.0347609 -0.0463956 -0.00737286 -0.00746649 -0.012732 0.00575561 0.0629456 0.0427734 -0.0200089 0.0347389 -0.02061 0.0405364 -0.0367642
internal_weight=0 7248.52 6798.92 3095.05 6161.93 4019.24 1574.58 2142.69 1913.2 449.606 1251.31 381.575 1588.07 518.697 1193 1117.22 636.986 554.619 2444.66 138.634 607.839 308.261 414.345 1054.37 1069.37 1181.85 593.506 210.436 120.796 661.89 322.627 390.406 973.808 2433.22 231.353 98.4035 702.879 204.326 342.464 471.389 182.692 112.742 498.553 173.142 950.733
internal_count=62087 47175 45069 14912 42172 29110 10504 13062 9568 2106 6638 1746 10434 3207 8758 6029 2897 2628 18606 748 2727 2155 2060 8010 7227 5344 2579 1052 624 2930 1636 1775 6646 18544 1193 473 3969 1137 1503 2095 970 539 2832 753 6520
is_linear=0
shrinkage=0.06369


Tree=18
num_leaves=46
num_cat=0
split_feature=18 18 18 13 13 13 11 15 8 15 15 11 13 11 15 15 11 4 18 18 11 18 3 10 8 15 8 1 13 4 15 8 18 15 3 13 13 15 15 4 8 3 11 11 13
split_gain=1347.75 246.123 213.154 171.727 159.725 152.359 137.736 134.68 128.367 94.5892 92.941 78.8995 65.4672 173.251 69.3618 48.8232 48.1657 44.8703 40.237 39.7811 38.03 35.3863 34.2345 33.4836 31.9896 44.1341 30.085 29.6547 30.8642 28.1756 27.0473 25.3667 24.7098 23.8965 22.4768 22.409 22.1921 24.7535 21.0085 20.9268 20.8855 20.817 19.7512 19.0369 18.903
threshold=6234.5629785156261 2653.3303222656255 11797.885124206545 163.45846368956521 75.490718947789915 52.873077392578132 26.575605392456058 11.704290866851808 139.52729034423831 408.26618957519537 87.030384063720717 18.323184013366703 79.978500366210952 83.511595163631242 422.51510620117193 151.143913269043 47.804220721132886 2.2839976921377034 1534.5213403701785 21048.959960937504 75.695125579833999 10690.010253906252 0.59008297324180614 76.588715789475842 0.57078653573989879 146.99635430664065 587.53687668904615 0.53714972938126493 117.23019409179689 2.2365057468414311 398.37151223144537 13.075763018056991 45286.166015625007 206.86729431152347 0.27203036844730383 56.341502940568041 578.50366210937511 766.71823588867198 275.37722981445319 0.18573101122428687 6.0732003385672906 0.28970938920974737 148.45467895311688 9.1324429512023944 54.124172210693366
decision_type=8 10 10 10 8 8 8 10 8 10 10 10 8 8 8 10 8 10 10 10 10 8 10 8 10 10 8 10 10 10 10 8 10 10 10 10 10 10 10 10 8 10 10 10 10
left_child=1 16 4 6 7 10 9 -2 32 24 22 38 -8 30 42 20 18 31 -1 -10 34 -6 -3 -16 25 -4 36 -7 -29 35 -14 43 -5 -18 40 -17 37 -21 -9 -27 -13 -23 -15 -12 -31
right_child=2 5 3 8 21 27 12 11 19 -11 17 15 13 14 23 29 33 -19 -20 26 -22 41 -24 -25 -26 39 -28 28 -30 44 -32 -33 -34 -35 -36 -37 -38 -39 -40 -41 -42 -43 -44 -45 -46
leaf_value=0.063138671746883049 0.03713850293101198 0.039584265656805971 -0.024329475598291565 0.073835801630376313 0.043702210783278864 0.057095404019976898 -0.041708632347414808 0 0.03565243507528712 0.039089558305160248 0.030708269883178031 -0.01274328927221199 -0.0086072955092377466 -0.01064180185788245 0.0017664823490890643 -0.021204785166944379 0.083806781763671498 -0.024124294292063003 0.030861178921783777 0.018368170793148123 0.051252334995854409 -0.011392514997439046 0 -0.046139819872865917 -0.023981456628509458 0.047741615299683259 0.0054743998111641112 -0.011458076674045562 0.051227003113870254 -0.045555915347407404 0.055459866144960845 0.036410552909669616 0 0.043361996823618978 -0.023444181142997508 0.019604980285902452 0.027893073181158214 -0.051319048718763777 0.03058927052542635 -0.00034209364128741571 0.030489090068572991 0.027019695286644305 0.034491437418378811 -0.0052515175089964377 -0.017161932947718794
leaf_weight=325.083077698946 225.23706901073456 374.15217025578022 113.84413263946772 113.38027790933847 312.71452330797911 416.06070658564568 1998.5378381758928 469.44629067927599 55.739339157938957 143.64567223191261 62.382548153400421 84.374454654753208 26.29736539721489 93.644442543387413 57.875807374715805 419.94603799283504 354.97951018810272 291.87670485675335 417.45402473211288 16.091414570808411 39.142625346779823 97.743931427598 114.40963144600391 570.76133288443089 556.17172998189926 77.284257039427757 106.25887650251389 61.96146759390831 47.910917833447456 427.60677583515644 114.21594247221947 86.779246486723423 25.695393666625023 130.45520396530628 200.95874949544668 52.072719290852547 11.911955535411833 142.2066725641489 104.77618505805731 52.54777929931879 77.013514220714569 109.87080232799053 54.088130630552769 389.92480875551701 166.88332053273916
leaf_count=1431 1041 1681 602 509 1537 1895 16030 2490 266 800 283 497 129 608 315 2873 1685 1862 1891 81 187 469 561 4294 3613 354 591 315 207 3388 539 422 135 585 1196 280 59 982 538 315 413 542 291 2094 1211
internal_value=0 0.0353886 -0.0150241 -0.0238567 -0.00121639 0.0204063 -0.0282974 -0.00859478 0.0120237 -0.00685357 0.00858118 -0.0138433 -0.0351428 -0.0204177 -0.0323348 -0.0216651 0.0574964 -0.00423172 0.0457287 -0.00926233 -0.00221527 0.0302697 0.0304313 -0.0414999 -0.0156117 0.00298134 -0.0196407 0.0491979 0.0160573 -0.0287619 0.0425249 0.00642593 0.0617765 0.0741413 -0.00940877 -0.0161073 -0.0358052 -0.0426967 0.00588895 0.0281622 0.00736007 0.00840584 0.00571956 0 -0.0381907
internal_weight=0 3073.43 7117.99 4330.2 2787.79 1845.46 3858.91 2267.46 471.284 943.494 1319.53 2042.22 2915.42 916.883 776.37 1468 1227.97 830.963 742.537 332.208 401.489 520.329 488.562 628.637 799.848 243.676 276.469 525.933 109.872 1066.51 140.513 539.087 139.076 485.435 362.347 472.019 170.21 158.298 574.222 129.832 161.388 207.615 147.733 452.307 594.49
internal_count=62087 14912 47175 30513 16662 9320 27890 14114 2623 5684 6903 13073 22206 6176 5508 10045 5592 4661 3322 1979 2293 2548 2242 4609 4884 1271 1713 2417 522 7752 668 2799 644 2270 2106 3153 1122 1063 3028 669 910 1011 899 2377 4599
is_linear=0
shrinkage=0.06369


Tree=19
num_leaves=46
num_cat=0
split_feature=21 16 19 0 19 2 21 19 21 2 12 0 0 12 0 0 12 21 19 12 0 21 9 21 16 12 19 21 12 0 12 12 19 2 12 2 9 2 5 0 0 16 17 16 19
